{"learner":{"attributes":{"scikit_learn":"{\"_estimator_type\": \"regressor\"}"},"feature_names":["cylinders","displacement","horsepower","weight","acceleration","model_year","length","width","height","wheelbase","num_gears","drag_coefficient","frontal_area","compression_ratio","top_speed","origin_asia","origin_europe","origin_usa","engine_type_flat-4","engine_type_flat-6","engine_type_inline-3","engine_type_inline-4","engine_type_inline-6","engine_type_v10","engine_type_v12","engine_type_v6","engine_type_v8","fuel_system_carburetor","fuel_system_direct injection","fuel_system_gdi","fuel_system_mpfi","fuel_system_tbi","transmission_type_automatic","transmission_type_cvt","transmission_type_dct","transmission_type_manual","transmission_type_semi-automatic","drive_type_4wd","drive_type_awd","drive_type_fwd","drive_type_rwd"],"feature_types":["float","float","float","float","float","float","float","float","float","float","float","float","float","float","float","float","float","float","float","float","float","float","float","float","float","float","float","float","float","float","float","float","float","float","float","float","float","float","float","float","float"],"gradient_booster":{"model":{"cats":{"enc":[],"feature_segments":[],"sorted_idx":[]},"gbtree_model_param":{"num_parallel_tree":"1","num_trees":"800"},"iteration_indptr":[0,1,2,3,4,5,6,7,8,9,10,11,12,13,14,15,16,17,18,19,20,21,22,23,24,25,26,27,28,29,30,31,32,33,34,35,36,37,38,39,40,41,42,43,44,45,46,47,48,49,50,51,52,53,54,55,56,57,58,59,60,61,62,63,64,65,66,67,68,69,70,71,72,73,74,75,76,77,78,79,80,81,82,83,84,85,86,87,88,89,90,91,92,93,94,95,96,97,98,99,100,101,102,103,104,105,106,107,108,109,110,111,112,113,114,115,116,117,118,119,120,121,122,123,124,125,126,127,128,129,130,131,132,133,134,135,136,137,138,139,140,141,142,143,144,145,146,147,148,149,150,151,152,153,154,155,156,157,158,159,160,161,162,163,164,165,166,167,168,169,170,171,172,173,174,175,176,177,178,179,180,181,182,183,184,185,186,187,188,189,190,191,192,193,194,195,196,197,198,199,200,201,202,203,204,205,206,207,208,209,210,211,212,213,214,215,216,217,218,219,220,221,222,223,224,225,226,227,228,229,230,231,232,233,234,235,236,237,238,239,240,241,242,243,244,245,246,247,248,249,250,251,252,253,254,255,256,257,258,259,260,261,262,263,264,265,266,267,268,269,270,271,272,273,274,275,276,277,278,279,280,281,282,283,284,285,286,287,288,289,290,291,292,293,294,295,296,297,298,299,300,301,302,303,304,305,306,307,308,309,310,311,312,313,314,315,316,317,318,319,320,321,322,323,324,325,326,327,328,329,330,331,332,333,334,335,336,337,338,339,340,341,342,343,344,345,346,347,348,349,350,351,352,353,354,355,356,357,358,359,360,361,362,363,364,365,366,367,368,369,370,371,372,373,374,375,376,377,378,379,380,381,382,383,384,385,386,387,388,389,390,391,392,393,394,395,396,397,398,399,400,401,402,403,404,405,406,407,408,409,410,411,412,413,414,415,416,417,418,419,420,421,422,423,424,425,426,427,428,429,430,431,432,433,434,435,436,437,438,439,440,441,442,443,444,445,446,447,448,449,450,451,452,453,454,455,456,457,458,459,460,461,462,463,464,465,466,467,468,469,470,471,472,473,474,475,476,477,478,479,480,481,482,483,484,485,486,487,488,489,490,491,492,493,494,495,496,497,498,499,500,501,502,503,504,505,506,507,508,509,510,511,512,513,514,515,516,517,518,519,520,521,522,523,524,525,526,527,528,529,530,531,532,533,534,535,536,537,538,539,540,541,542,543,544,545,546,547,548,549,550,551,552,553,554,555,556,557,558,559,560,561,562,563,564,565,566,567,568,569,570,571,572,573,574,575,576,577,578,579,580,581,582,583,584,585,586,587,588,589,590,591,592,593,594,595,596,597,598,599,600,601,602,603,604,605,606,607,608,609,610,611,612,613,614,615,616,617,618,619,620,621,622,623,624,625,626,627,628,629,630,631,632,633,634,635,636,637,638,639,640,641,642,643,644,645,646,647,648,649,650,651,652,653,654,655,656,657,658,659,660,661,662,663,664,665,666,667,668,669,670,671,672,673,674,675,676,677,678,679,680,681,682,683,684,685,686,687,688,689,690,691,692,693,694,695,696,697,698,699,700,701,702,703,704,705,706,707,708,709,710,711,712,713,714,715,716,717,718,719,720,721,722,723,724,725,726,727,728,729,730,731,732,733,734,735,736,737,738,739,740,741,742,743,744,745,746,747,748,749,750,751,752,753,754,755,756,757,758,759,760,761,762,763,764,765,766,767,768,769,770,771,772,773,774,775,776,777,778,779,780,781,782,783,784,785,786,787,788,789,790,791,792,793,794,795,796,797,798,799,800],"tree_info":[0,0,0,0,0,0,0,0,0,0,0,0,0,0,0,0,0,0,0,0,0,0,0,0,0,0,0,0,0,0,0,0,0,0,0,0,0,0,0,0,0,0,0,0,0,0,0,0,0,0,0,0,0,0,0,0,0,0,0,0,0,0,0,0,0,0,0,0,0,0,0,0,0,0,0,0,0,0,0,0,0,0,0,0,0,0,0,0,0,0,0,0,0,0,0,0,0,0,0,0,0,0,0,0,0,0,0,0,0,0,0,0,0,0,0,0,0,0,0,0,0,0,0,0,0,0,0,0,0,0,0,0,0,0,0,0,0,0,0,0,0,0,0,0,0,0,0,0,0,0,0,0,0,0,0,0,0,0,0,0,0,0,0,0,0,0,0,0,0,0,0,0,0,0,0,0,0,0,0,0,0,0,0,0,0,0,0,0,0,0,0,0,0,0,0,0,0,0,0,0,0,0,0,0,0,0,0,0,0,0,0,0,0,0,0,0,0,0,0,0,0,0,0,0,0,0,0,0,0,0,0,0,0,0,0,0,0,0,0,0,0,0,0,0,0,0,0,0,0,0,0,0,0,0,0,0,0,0,0,0,0,0,0,0,0,0,0,0,0,0,0,0,0,0,0,0,0,0,0,0,0,0,0,0,0,0,0,0,0,0,0,0,0,0,0,0,0,0,0,0,0,0,0,0,0,0,0,0,0,0,0,0,0,0,0,0,0,0,0,0,0,0,0,0,0,0,0,0,0,0,0,0,0,0,0,0,0,0,0,0,0,0,0,0,0,0,0,0,0,0,0,0,0,0,0,0,0,0,0,0,0,0,0,0,0,0,0,0,0,0,0,0,0,0,0,0,0,0,0,0,0,0,0,0,0,0,0,0,0,0,0,0,0,0,0,0,0,0,0,0,0,0,0,0,0,0,0,0,0,0,0,0,0,0,0,0,0,0,0,0,0,0,0,0,0,0,0,0,0,0,0,0,0,0,0,0,0,0,0,0,0,0,0,0,0,0,0,0,0,0,0,0,0,0,0,0,0,0,0,0,0,0,0,0,0,0,0,0,0,0,0,0,0,0,0,0,0,0,0,0,0,0,0,0,0,0,0,0,0,0,0,0,0,0,0,0,0,0,0,0,0,0,0,0,0,0,0,0,0,0,0,0,0,0,0,0,0,0,0,0,0,0,0,0,0,0,0,0,0,0,0,0,0,0,0,0,0,0,0,0,0,0,0,0,0,0,0,0,0,0,0,0,0,0,0,0,0,0,0,0,0,0,0,0,0,0,0,0,0,0,0,0,0,0,0,0,0,0,0,0,0,0,0,0,0,0,0,0,0,0,0,0,0,0,0,0,0,0,0,0,0,0,0,0,0,0,0,0,0,0,0,0,0,0,0,0,0,0,0,0,0,0,0,0,0,0,0,0,0,0,0,0,0,0,0,0,0,0,0,0,0,0,0,0,0,0,0,0,0,0,0,0,0,0,0,0,0,0,0,0,0,0,0,0,0,0,0,0,0,0,0,0,0,0,0,0,0,0,0,0,0,0,0,0,0,0,0,0,0,0,0,0,0,0,0,0,0,0,0,0,0,0,0,0,0,0,0,0,0,0,0,0,0,0,0,0,0,0,0,0,0,0,0,0,0,0,0,0,0,0,0,0,0,0,0,0,0,0,0,0,0,0,0,0,0,0,0,0,0,0,0,0,0,0,0,0,0,0,0,0,0,0,0,0,0,0,0,0,0,0,0,0,0,0,0,0,0,0,0,0,0,0,0,0,0,0,0,0,0,0,0,0,0,0,0,0,0,0,0,0],"trees":[{"base_weights":[-2.0072803E-2,2.9396834E0,-1.2859732E1,5.2318354E0,-1.0585899E0,-9.681236E0,-1.75505E1,4.752379E-2,1.2892143E-1,-8.8550426E-2,9.6201844E-4,-1.3824487E-1,-2.1720739E-1,-3.1615943E-1,-4.3950048E-1],"categories":[],"categories_nodes":[],"categories_segments":[],"categories_sizes":[],"default_left":[0,0,0,0,0,0,0,0,0,0,0,0,0,0,0],"id":0,"left_children":[1,3,5,7,9,11,13,-1,-1,-1,-1,-1,-1,-1,-1],"loss_changes":[2.7183097E5,5.328007E4,1.9806203E4,1.2795953E4,7.9010557E3,2.5384375E3,3.8121719E3,0E0,0E0,0E0,0E0,0E0,0E0,0E0,0E0],"parents":[2147483647,0,0,1,1,2,2,3,3,4,4,5,5,6,6],"right_children":[2,4,6,8,10,12,14,-1,-1,-1,-1,-1,-1,-1,-1],"split_conditions":[8E0,6E0,5.077E3,2E3,1.997E3,4.189E3,5.928E3,4.752379E-2,1.2892143E-1,-8.8550426E-2,9.6201844E-4,-1.3824487E-1,-2.1720739E-1,-3.1615943E-1,-4.3950048E-1],"split_indices":[0,0,3,5,5,3,3,0,0,0,0,0,0,0,0],"split_type":[0,0,0,0,0,0,0,0,0,0,0,0,0,0,0],"sum_hessian":[7.151E3,5.812E3,1.339E3,3.694E3,2.118E3,8E2,5.39E2,1.103E3,2.591E3,5.23E2,1.595E3,2.41E2,5.59E2,3.9E2,1.49E2],"tree_param":{"num_deleted":"0","num_feature":"41","num_nodes":"15","size_leaf_vector":"1"}},{"base_weights":[1.8607182E-2,2.9313288E0,-1.2688836E1,5.290982E0,-8.7345475E-1,-9.601471E0,-1.7586216E1,4.926493E-2,1.287546E-1,-6.979976E-2,9.179784E-3,-1.5846671E-1,-2.4770226E-1,-3.1732345E-1,-4.2922863E-1],"categories":[],"categories_nodes":[],"categories_segments":[],"categories_sizes":[],"default_left":[0,0,0,0,0,0,0,0,0,0,0,0,0,0,0],"id":1,"left_children":[1,3,5,7,9,11,13,-1,-1,-1,-1,-1,-1,-1,-1],"loss_changes":[2.6756797E5,5.2804496E4,2.0210172E4,1.1754258E4,7.8532427E3,3.7723672E3,3.1218281E3,0E0,0E0,0E0,0E0,0E0,0E0,0E0,0E0],"parents":[2147483647,0,0,1,1,2,2,3,3,4,4,5,5,6,6],"right_children":[2,4,6,8,10,12,14,-1,-1,-1,-1,-1,-1,-1,-1],"split_conditions":[8E0,1.803E2,4.338E2,2E3,2.002E3,3.796E2,5.928E3,4.926493E-2,1.287546E-1,-6.979976E-2,9.179784E-3,-1.5846671E-1,-2.4770226E-1,-3.1732345E-1,-4.2922863E-1],"split_indices":[0,1,1,5,5,1,3,0,0,0,0,0,0,0,0],"split_type":[0,0,0,0,0,0,0,0,0,0,0,0,0,0,0],"sum_hessian":[7.227E3,5.88E3,1.347E3,3.629E3,2.251E3,8.28E2,5.19E2,1.048E3,2.581E3,7.59E2,1.492E3,5.19E2,3.09E2,3.63E2,1.56E2],"tree_param":{"num_deleted":"0","num_feature":"41","num_nodes":"15","size_leaf_vector":"1"}},{"base_weights":[3.3140972E-2,2.8544345E0,-1.2242794E1,5.225366E0,-9.2010754E-1,-9.289219E0,-1.7146791E1,1.3223723E-1,8.02622E-2,1.3720345E-2,-5.085329E-2,-1.5356265E-1,-2.4075654E-1,-3.1736025E-1,-4.295988E-1],"categories":[],"categories_nodes":[],"categories_segments":[],"categories_sizes":[],"default_left":[0,0,0,0,0,0,0,0,0,0,0,0,0,0,0],"id":2,"left_children":[1,3,5,7,9,11,13,-1,-1,-1,-1,-1,-1,-1,-1],"loss_changes":[2.4908723E5,5.2340047E4,1.9305E4,6.009797E3,5.8837373E3,3.6297578E3,2.4481562E3,0E0,0E0,0E0,0E0,0E0,0E0,0E0,0E0],"parents":[2147483647,0,0,1,1,2,2,3,3,4,4,5,5,6,6],"right_children":[2,4,6,8,10,12,14,-1,-1,-1,-1,-1,-1,-1,-1],"split_conditions":[8E0,1.803E2,4.338E2,1.334E2,2.267E2,3.796E2,4.976E2,1.3223723E-1,8.02622E-2,1.3720345E-2,-5.085329E-2,-1.5356265E-1,-2.4075654E-1,-3.1736025E-1,-4.295988E-1],"split_indices":[0,1,1,1,1,1,1,0,0,0,0,0,0,0,0],"split_type":[0,0,0,0,0,0,0,0,0,0,0,0,0,0,0],"sum_hessian":[7.19E3,5.847E3,1.343E3,3.591E3,2.256E3,8.4E2,5.03E2,1.673E3,1.918E3,1.134E3,1.122E3,5.32E2,3.08E2,3.92E2,1.11E2],"tree_param":{"num_deleted":"0","num_feature":"41","num_nodes":"15","size_leaf_vector":"1"}},{"base_weights":[-6.0676586E-2,2.774621E0,-1.1934922E1,5.0556774E0,-8.7381315E-1,-8.05565E0,-1.5537324E1,4.6009693E-2,1.2364596E-1,-8.1482574E-2,3.6393974E-3,-1.910678E-1,-1.21642075E-1,-2.7458054E-1,-3.8997793E-1],"categories":[],"categories_nodes":[],"categories_segments":[],"categories_sizes":[],"default_left":[0,0,0,0,0,0,0,0,0,0,0,0,0,0,0],"id":3,"left_children":[1,3,5,7,9,11,13,-1,-1,-1,-1,-1,-1,-1,-1],"loss_changes":[2.4156125E5,4.8207508E4,1.91995E4,1.1047781E4,7.532562E3,1.9148477E3,4.858172E3,0E0,0E0,0E0,0E0,0E0,0E0,0E0,0E0],"parents":[2147483647,0,0,1,1,2,2,3,3,4,4,5,5,6,6],"right_children":[2,4,6,8,10,12,14,-1,-1,-1,-1,-1,-1,-1,-1],"split_conditions":[3.742E3,1.803E2,4.031E2,2E3,1.997E3,2.012E3,5.67E3,4.6009693E-2,1.2364596E-1,-8.1482574E-2,3.6393974E-3,-1.910678E-1,-1.21642075E-1,-2.7458054E-1,-3.8997793E-1],"split_indices":[3,1,1,5,5,5,3,0,0,0,0,0,0,0,0],"split_type":[0,0,0,0,0,0,0,0,0,0,0,0,0,0,0],"sum_hessian":[7.173E3,5.791E3,1.382E3,3.563E3,2.228E3,6.67E2,7.15E2,1.035E3,2.528E3,5.52E2,1.676E3,3.77E2,2.9E2,4.94E2,2.21E2],"tree_param":{"num_deleted":"0","num_feature":"41","num_nodes":"15","size_leaf_vector":"1"}},{"base_weights":[2.2331161E-2,2.7695408E0,-1.1768141E1,4.9757576E0,-7.831504E-1,-8.934324E0,-1.6546339E1,3.984841E-2,1.1897013E-1,-6.616504E-2,9.682101E-3,-1.4799848E-1,-2.3428176E-1,-3.089896E-1,-4.3393534E-1],"categories":[],"categories_nodes":[],"categories_segments":[],"categories_sizes":[],"default_left":[0,0,0,0,0,0,0,0,0,0,0,0,0,0,0],"id":4,"left_children":[1,3,5,7,9,11,13,-1,-1,-1,-1,-1,-1,-1,-1],"loss_changes":[2.3259834E5,4.5652863E4,1.822414E4,1.0414383E4,7.14417E3,3.5539453E3,2.5083281E3,0E0,0E0,0E0,0E0,0E0,0E0,0E0,0E0],"parents":[2147483647,0,0,1,1,2,2,3,3,4,4,5,5,6,6],"right_children":[2,4,6,8,10,12,14,-1,-1,-1,-1,-1,-1,-1,-1],"split_conditions":[8E0,1.803E2,4.338E2,1.997E3,2.002E3,3.796E2,5.16E2,3.984841E-2,1.1897013E-1,-6.616504E-2,9.682101E-3,-1.4799848E-1,-2.3428176E-1,-3.089896E-1,-4.3393534E-1],"split_indices":[0,1,1,5,5,1,1,0,0,0,0,0,0,0,0],"split_type":[0,0,0,0,0,0,0,0,0,0,0,0,0,0,0],"sum_hessian":[7.179E3,5.823E3,1.356E3,3.592E3,2.231E3,8.53E2,5.03E2,8.84E2,2.708E3,7.45E2,1.486E3,5.52E2,3.01E2,4.18E2,8.5E1],"tree_param":{"num_deleted":"0","num_feature":"41","num_nodes":"15","size_leaf_vector":"1"}},{"base_weights":[-7.368263E-3,2.689404E0,-1.1642366E1,4.7652564E0,-9.9107313E-1,-8.7742605E0,-1.5994762E1,5.997714E-2,1.2897559E-1,-8.557401E-2,-1.0160016E-3,-1.18194185E-1,-1.9619611E-1,-2.8656456E-1,-3.9873022E-1],"categories":[],"categories_nodes":[],"categories_segments":[],"categories_sizes":[],"default_left":[0,0,0,0,0,0,0,0,0,0,0,0,0,0,0],"id":5,"left_children":[1,3,5,7,9,11,13,-1,-1,-1,-1,-1,-1,-1,-1],"loss_changes":[2.2594617E5,4.4669285E4,1.6771812E4,1.10956875E4,6.518832E3,2.369918E3,3.2385E3,0E0,0E0,0E0,0E0,0E0,0E0,0E0,0E0],"parents":[2147483647,0,0,1,1,2,2,3,3,4,4,5,5,6,6],"right_children":[2,4,6,8,10,12,14,-1,-1,-1,-1,-1,-1,-1,-1],"split_conditions":[8E0,6E0,5.077E3,2.009E3,1.995E3,4.133E3,5.928E3,5.997714E-2,1.2897559E-1,-8.557401E-2,-1.0160016E-3,-1.18194185E-1,-1.9619611E-1,-2.8656456E-1,-3.9873022E-1],"split_indices":[0,0,3,5,5,3,3,0,0,0,0,0,0,0,0],"split_type":[0,0,0,0,0,0,0,0,0,0,0,0,0,0,0],"sum_hessian":[7.199E3,5.845E3,1.354E3,3.737E3,2.108E3,8.18E2,5.36E2,1.825E3,1.912E3,4.68E2,1.64E3,2.19E2,5.99E2,3.8E2,1.56E2],"tree_param":{"num_deleted":"0","num_feature":"41","num_nodes":"15","size_leaf_vector":"1"}},{"base_weights":[-2.0004584E-2,2.5962672E0,-1.1342373E1,4.6513004E0,-9.833638E-1,-1.0001879E1,-1.785439E1,4.1466087E-2,1.15001574E-1,-8.464672E-2,-6.097889E-4,-2.4428514E-1,-1.7377903E-1,-3.9851215E-1,-3.2361293E-1],"categories":[],"categories_nodes":[],"categories_segments":[],"categories_sizes":[],"default_left":[0,0,0,0,0,0,0,0,0,0,0,0,0,0,0],"id":6,"left_children":[1,3,5,7,9,11,13,-1,-1,-1,-1,-1,-1,-1,-1],"loss_changes":[2.1289683E5,4.295079E4,1.15945E4,1.0493578E4,6.593632E3,3.1479297E3,4.6785156E2,0E0,0E0,0E0,0E0,0E0,0E0,0E0,0E0],"parents":[2147483647,0,0,1,1,2,2,3,3,4,4,5,5,6,6],"right_children":[2,4,6,8,10,12,14,-1,-1,-1,-1,-1,-1,-1,-1],"split_conditions":[8E0,6E0,1E1,2E3,1.995E3,2.004E3,2.005E3,4.1466087E-2,1.15001574E-1,-8.464672E-2,-6.097889E-4,-2.4428514E-1,-1.7377903E-1,-3.9851215E-1,-3.2361293E-1],"split_indices":[0,0,0,5,5,5,5,0,0,0,0,0,0,0,0],"split_type":[0,0,0,0,0,0,0,0,0,0,0,0,0,0,0],"sum_hessian":[7.185E3,5.837E3,1.348E3,3.708E3,2.129E3,1.12E3,2.28E2,1.109E3,2.599E3,4.82E2,1.647E3,4.14E2,7.06E2,9.7E1,1.31E2],"tree_param":{"num_deleted":"0","num_feature":"41","num_nodes":"15","size_leaf_vector":"1"}},{"base_weights":[-1.6560264E-2,2.5715384E0,-1.1068502E1,4.6656704E0,-7.895013E-1,-7.47096E0,-1.4348533E1,5.4429427E-2,1.2132081E-1,-5.7935704E-2,1.2663089E-2,-1.9066514E-1,-1.2298166E-1,-2.538071E-1,-3.5994342E-1],"categories":[],"categories_nodes":[],"categories_segments":[],"categories_sizes":[],"default_left":[0,0,0,0,0,0,0,0,0,0,0,0,0,0,0],"id":7,"left_children":[1,3,5,7,9,11,13,-1,-1,-1,-1,-1,-1,-1,-1],"loss_changes":[2.0637508E5,4.115091E4,1.6044875E4,9.789414E3,6.732435E3,1.7254141E3,4.094375E3,0E0,0E0,0E0,0E0,0E0,0E0,0E0,0E0],"parents":[2147483647,0,0,1,1,2,2,3,3,4,4,5,5,6,6],"right_children":[2,4,6,8,10,12,14,-1,-1,-1,-1,-1,-1,-1,-1],"split_conditions":[3.742E3,1.803E2,4.031E2,2.006E3,2.005E3,2.004E3,5.67E3,5.4429427E-2,1.2132081E-1,-5.7935704E-2,1.2663089E-2,-1.9066514E-1,-1.2298166E-1,-2.538071E-1,-3.5994342E-1],"split_indices":[3,1,1,5,5,5,3,0,0,0,0,0,0,0,0],"split_type":[0,0,0,0,0,0,0,0,0,0,0,0,0,0,0],"sum_hessian":[7.213E3,5.845E3,1.368E3,3.601E3,2.244E3,6.54E2,7.14E2,1.509E3,2.092E3,9.04E2,1.34E3,2.53E2,4.01E2,4.94E2,2.2E2],"tree_param":{"num_deleted":"0","num_feature":"41","num_nodes":"15","size_leaf_vector":"1"}},{"base_weights":[-2.2178365E-2,2.517659E0,-1.0984717E1,4.5743346E0,-7.766368E-1,-8.332381E0,-1.5349309E1,5.0278954E-2,1.1650271E-1,-7.768028E-2,2.5555622E-3,-1.2853384E-1,-2.0357147E-1,-2.7924988E-1,-3.8593087E-1],"categories":[],"categories_nodes":[],"categories_segments":[],"categories_sizes":[],"default_left":[0,0,0,0,0,0,0,0,0,0,0,0,0,0,0],"id":8,"left_children":[1,3,5,7,9,11,13,-1,-1,-1,-1,-1,-1,-1,-1],"loss_changes":[2.017515E5,3.986301E4,1.56483125E4,9.318898E3,6.357903E3,2.9234531E3,2.5409219E3,0E0,0E0,0E0,0E0,0E0,0E0,0E0,0E0],"parents":[2147483647,0,0,1,1,2,2,3,3,4,4,5,5,6,6],"right_children":[2,4,6,8,10,12,14,-1,-1,-1,-1,-1,-1,-1,-1],"split_conditions":[8E0,1.803E2,4.338E2,2.004E3,1.995E3,3.566E2,6.08E3,5.0278954E-2,1.1650271E-1,-7.768028E-2,2.5555622E-3,-1.2853384E-1,-2.0357147E-1,-2.7924988E-1,-3.8593087E-1],"split_indices":[0,1,1,5,5,1,3,0,0,0,0,0,0,0,0],"split_type":[0,0,0,0,0,0,0,0,0,0,0,0,0,0,0],"sum_hessian":[7.244E3,5.882E3,1.362E3,3.621E3,2.261E3,8.49E2,5.13E2,1.369E3,2.252E3,5.09E2,1.752E3,4.2E2,4.29E2,3.83E2,1.3E2],"tree_param":{"num_deleted":"0","num_feature":"41","num_nodes":"15","size_leaf_vector":"1"}},{"base_weights":[3.3170827E-2,2.500699E0,-1.0496834E1,4.46527E0,-7.7559066E-1,-6.961515E0,-1.3884437E1,1.0476022E-1,4.1302856E-2,1.43195875E-2,-4.53582E-2,-1.06077544E-1,-1.6346808E-1,-2.4379921E-1,-3.5055855E-1],"categories":[],"categories_nodes":[],"categories_segments":[],"categories_sizes":[],"default_left":[0,0,0,0,0,0,0,0,0,0,0,0,0,0,0],"id":9,"left_children":[1,3,5,7,9,11,13,-1,-1,-1,-1,-1,-1,-1,-1],"loss_changes":[1.862722E5,3.7387047E4,1.6200953E4,6.7227812E3,4.849787E3,1.2972266E3,4.0679688E3,0E0,0E0,0E0,0E0,0E0,0E0,0E0,0E0],"parents":[2147483647,0,0,1,1,2,2,3,3,4,4,5,5,6,6],"right_children":[2,4,6,8,10,12,14,-1,-1,-1,-1,-1,-1,-1,-1],"split_conditions":[3.742E3,2.529E3,4.031E2,4.21E-1,2.267E2,3.285E2,5.67E3,1.0476022E-1,4.1302856E-2,1.43195875E-2,-4.53582E-2,-1.06077544E-1,-1.6346808E-1,-2.4379921E-1,-3.5055855E-1],"split_indices":[3,3,1,11,1,1,3,0,0,0,0,0,0,0,0],"split_type":[0,0,0,0,0,0,0,0,0,0,0,0,0,0,0],"sum_hessian":[7.167E3,5.807E3,1.36E3,3.63E3,2.177E3,6.67E2,6.93E2,2.745E3,8.85E2,1.089E3,1.088E3,2.84E2,3.83E2,4.76E2,2.17E2],"tree_param":{"num_deleted":"0","num_feature":"41","num_nodes":"15","size_leaf_vector":"1"}},{"base_weights":[-4.8950952E-3,2.4221451E0,-1.0476528E1,4.405055E0,-7.499534E-1,-7.8773875E0,-1.4785814E1,1.01270586E-1,3.4739774E-2,1.4700255E-2,-4.4713315E-2,-1.2825982E-1,-2.0672457E-1,-2.7103394E-1,-3.7544623E-1],"categories":[],"categories_nodes":[],"categories_segments":[],"categories_sizes":[],"default_left":[0,0,0,0,0,0,0,0,0,0,0,0,0,0,0],"id":10,"left_children":[1,3,5,7,9,11,13,-1,-1,-1,-1,-1,-1,-1,-1],"loss_changes":[1.8207436E5,3.6586227E4,1.4979453E4,6.2783047E3,4.939342E3,2.9674453E3,2.2317969E3,0E0,0E0,0E0,0E0,0E0,0E0,0E0,0E0],"parents":[2147483647,0,0,1,1,2,2,3,3,4,4,5,5,6,6],"right_children":[2,4,6,8,10,12,14,-1,-1,-1,-1,-1,-1,-1,-1],"split_conditions":[2.8E2,1.803E2,4.338E2,4.3E-1,2.267E2,3.796E2,4.976E2,1.01270586E-1,3.4739774E-2,1.4700255E-2,-4.4713315E-2,-1.2825982E-1,-2.0672457E-1,-2.7103394E-1,-3.7544623E-1],"split_indices":[1,1,1,11,1,1,1,0,0,0,0,0,0,0,0],"split_type":[0,0,0,0,0,0,0,0,0,0,0,0,0,0,0],"sum_hessian":[7.162E3,5.815E3,1.347E3,3.578E3,2.237E3,8.42E2,5.05E2,2.869E3,7.09E2,1.119E3,1.118E3,5.3E2,3.12E2,3.89E2,1.16E2],"tree_param":{"num_deleted":"0","num_feature":"41","num_nodes":"15","size_leaf_vector":"1"}},{"base_weights":[-3.8665667E-2,2.3796868E0,-1.0257917E1,4.328058E0,-7.523324E-1,-6.863523E0,-1.3305608E1,5.4421037E-2,1.1659171E-1,-5.5368807E-2,1.1995224E-2,-1.7737953E-1,-1.1168125E-1,-2.4728654E-1,-3.63802E-1],"categories":[],"categories_nodes":[],"categories_segments":[],"categories_sizes":[],"default_left":[0,0,0,0,0,0,0,0,0,0,0,0,0,0,0],"id":11,"left_children":[1,3,5,7,9,11,13,-1,-1,-1,-1,-1,-1,-1,-1],"loss_changes":[1.7796422E5,3.5537508E4,1.4162156E4,8.645828E3,6.0916875E3,1.6271289E3,3.1053438E3,0E0,0E0,0E0,0E0,0E0,0E0,0E0,0E0],"parents":[2147483647,0,0,1,1,2,2,3,3,4,4,5,5,6,6],"right_children":[2,4,6,8,10,12,14,-1,-1,-1,-1,-1,-1,-1,-1],"split_conditions":[8E0,1.803E2,4.031E2,2.009E3,2.005E3,2.004E3,4.976E2,5.4421037E-2,1.1659171E-1,-5.5368807E-2,1.1995224E-2,-1.7737953E-1,-1.1168125E-1,-2.4728654E-1,-3.63802E-1],"split_indices":[0,1,1,5,5,5,1,0,0,0,0,0,0,0,0],"split_type":[0,0,0,0,0,0,0,0,0,0,0,0,0,0,0],"sum_hessian":[7.199E3,5.822E3,1.377E3,3.589E3,2.233E3,6.53E2,7.24E2,1.735E3,1.854E3,8.96E2,1.337E3,2.52E2,4.01E2,6.1E2,1.14E2],"tree_param":{"num_deleted":"0","num_feature":"41","num_nodes":"15","size_leaf_vector":"1"}},{"base_weights":[5.727245E-2,2.4334238E0,-9.622757E0,4.394569E0,-3.9078164E-1,-7.040695E0,-1.3916026E1,3.5429638E-2,1.0659203E-1,-5.232238E-2,1.435722E-2,-1.0728399E-1,-1.8451084E-1,-2.53406E-1,-3.5677138E-1],"categories":[],"categories_nodes":[],"categories_segments":[],"categories_sizes":[],"default_left":[0,0,0,0,0,0,0,0,0,0,0,0,0,0,0],"id":12,"left_children":[1,3,5,7,9,11,13,-1,-1,-1,-1,-1,-1,-1,-1],"loss_changes":[1.6595348E5,3.2087672E4,1.5663469E4,8.375539E3,5.86144E3,3.2090234E3,2.3753906E3,0E0,0E0,0E0,0E0,0E0,0E0,0E0,0E0],"parents":[2147483647,0,0,1,1,2,2,3,3,4,4,5,5,6,6],"right_children":[2,4,6,8,10,12,14,-1,-1,-1,-1,-1,-1,-1,-1],"split_conditions":[3.647E3,2.398E3,4.291E2,1.998E3,2.002E3,3.566E2,6.08E3,3.5429638E-2,1.0659203E-1,-5.232238E-2,1.435722E-2,-1.0728399E-1,-1.8451084E-1,-2.53406E-1,-3.5677138E-1],"split_indices":[3,3,1,5,5,1,3,0,0,0,0,0,0,0,0],"split_type":[0,0,0,0,0,0,0,0,0,0,0,0,0,0,0],"sum_hessian":[7.213E3,5.792E3,1.421E3,3.418E3,2.374E3,8.89E2,5.32E2,8.99E2,2.519E3,7.89E2,1.585E3,5.05E2,3.84E2,4.07E2,1.25E2],"tree_param":{"num_deleted":"0","num_feature":"41","num_nodes":"15","size_leaf_vector":"1"}},{"base_weights":[3.6076143E-2,2.3101587E0,-9.888067E0,4.1820836E0,-6.958628E-1,-7.44881E0,-1.3859166E1,5.2526683E-2,1.12698644E-1,-7.354801E-2,3.243599E-3,-1.2205838E-1,-1.9567429E-1,-2.5775912E-1,-3.6760002E-1],"categories":[],"categories_nodes":[],"categories_segments":[],"categories_sizes":[],"default_left":[0,0,0,0,0,0,0,0,0,0,0,0,0,0,0],"id":13,"left_children":[1,3,5,7,9,11,13,-1,-1,-1,-1,-1,-1,-1,-1],"loss_changes":[1.6294281E5,3.305653E4,1.2932719E4,8.166543E3,5.7698853E3,2.5658516E3,2.0036172E3,0E0,0E0,0E0,0E0,0E0,0E0,0E0,0E0],"parents":[2147483647,0,0,1,1,2,2,3,3,4,4,5,5,6,6],"right_children":[2,4,6,8,10,12,14,-1,-1,-1,-1,-1,-1,-1,-1],"split_conditions":[8E0,1.803E2,4.338E2,2.009E3,1.995E3,3.796E2,5.16E2,5.2526683E-2,1.12698644E-1,-7.354801E-2,3.243599E-3,-1.2205838E-1,-1.9567429E-1,-2.5775912E-1,-3.6760002E-1],"split_indices":[0,1,1,5,5,1,1,0,0,0,0,0,0,0,0],"split_type":[0,0,0,0,0,0,0,0,0,0,0,0,0,0,0],"sum_hessian":[7.218E3,5.873E3,1.345E3,3.619E3,2.254E3,8.35E2,5.1E2,1.749E3,1.87E3,5.03E2,1.751E3,5.32E2,3.03E2,4.23E2,8.7E1],"tree_param":{"num_deleted":"0","num_feature":"41","num_nodes":"15","size_leaf_vector":"1"}},{"base_weights":[-3.970378E-2,2.225263E0,-9.584965E0,4.2105865E0,-5.3588825E-1,-7.2152743E0,-1.3678934E1,1.05560936E-1,5.99824E-2,1.6711256E-2,-4.3644495E-2,-1.0996002E-1,-1.7982554E-1,-2.492276E-1,-3.43718E-1],"categories":[],"categories_nodes":[],"categories_segments":[],"categories_sizes":[],"default_left":[0,0,0,0,0,0,0,0,0,0,0,0,0,0,0],"id":14,"left_children":[1,3,5,7,9,11,13,-1,-1,-1,-1,-1,-1,-1,-1],"loss_changes":[1.56246E5,3.202169E4,1.3345422E4,4.3776094E3,5.520192E3,2.6330117E3,1.9477266E3,0E0,0E0,0E0,0E0,0E0,0E0,0E0,0E0],"parents":[2147483647,0,0,1,1,2,2,3,3,4,4,5,5,6,6],"right_children":[2,4,6,8,10,12,14,-1,-1,-1,-1,-1,-1,-1,-1],"split_conditions":[3.742E3,2.398E3,4.338E2,1.378E2,2.267E2,3.566E2,6.08E3,1.05560936E-1,5.99824E-2,1.6711256E-2,-4.3644495E-2,-1.0996002E-1,-1.7982554E-1,-2.492276E-1,-3.43718E-1],"split_indices":[3,3,1,1,1,1,3,0,0,0,0,0,0,0,0],"split_type":[0,0,0,0,0,0,0,0,0,0,0,0,0,0,0],"sum_hessian":[7.225E3,5.84E3,1.385E3,3.397E3,2.443E3,8.79E2,5.06E2,1.804E3,1.593E3,1.333E3,1.11E3,4.49E2,4.3E2,3.79E2,1.27E2],"tree_param":{"num_deleted":"0","num_feature":"41","num_nodes":"15","size_leaf_vector":"1"}},{"base_weights":[-2.721199E-2,2.506393E0,-8.3672905E0,4.1553783E0,-1.3171923E-1,-5.440038E0,-1.228436E1,2.9646365E-2,1.0111904E-1,-3.7402797E-2,2.258806E-2,-7.2888E-2,-1.4274047E-1,-2.143847E-1,-3.1303445E-1],"categories":[],"categories_nodes":[],"categories_segments":[],"categories_sizes":[],"default_left":[0,0,0,0,0,0,0,0,0,0,0,0,0,0,0],"id":15,"left_children":[1,3,5,7,9,11,13,-1,-1,-1,-1,-1,-1,-1,-1],"loss_changes":[1.5199184E5,2.4001047E4,1.9148844E4,8.1645938E3,4.6565684E3,2.9012441E3,3.6031484E3,0E0,0E0,0E0,0E0,0E0,0E0,0E0,0E0],"parents":[2147483647,0,0,1,1,2,2,3,3,4,4,5,5,6,6],"right_children":[2,4,6,8,10,12,14,-1,-1,-1,-1,-1,-1,-1,-1],"split_conditions":[3.439E3,2.398E3,4.796E3,1.997E3,2.006E3,4.023E3,5.67E3,2.9646365E-2,1.0111904E-1,-3.7402797E-2,2.258806E-2,-7.2888E-2,-1.4274047E-1,-2.143847E-1,-3.1303445E-1],"split_indices":[3,3,3,5,5,3,3,0,0,0,0,0,0,0,0],"split_type":[0,0,0,0,0,0,0,0,0,0,0,0,0,0,0],"sum_hessian":[7.191E3,5.516E3,1.675E3,3.394E3,2.122E3,9.6E2,7.15E2,8.56E2,2.538E3,8.92E2,1.23E3,4.68E2,4.92E2,4.91E2,2.24E2],"tree_param":{"num_deleted":"0","num_feature":"41","num_nodes":"15","size_leaf_vector":"1"}},{"base_weights":[-1.5044286E-2,2.1598034E0,-9.31142E0,4.1031737E0,-4.9684346E-1,-7.0924196E0,-1.3269892E1,2.0062022E-2,9.616624E-2,2.3262607E-2,-3.6204915E-2,-1.1596259E-1,-1.83269E-1,-3.114585E-1,-2.3051544E-1],"categories":[],"categories_nodes":[],"categories_segments":[],"categories_sizes":[],"default_left":[0,0,0,0,0,0,0,0,0,0,0,0,0,0,0],"id":16,"left_children":[1,3,5,7,9,11,13,-1,-1,-1,-1,-1,-1,-1,-1],"loss_changes":[1.4492467E5,2.9993387E4,1.1841102E4,7.3285547E3,5.354595E3,2.285457E3,1.7739609E3,0E0,0E0,0E0,0E0,0E0,0E0,0E0,0E0],"parents":[2147483647,0,0,1,1,2,2,3,3,4,4,5,5,6,6],"right_children":[2,4,6,8,10,12,14,-1,-1,-1,-1,-1,-1,-1,-1],"split_conditions":[8E0,1.752E2,4.373E2,1.993E3,2.151E2,3.796E2,2.005E3,2.0062022E-2,9.616624E-2,2.3262607E-2,-3.6204915E-2,-1.1596259E-1,-1.83269E-1,-3.114585E-1,-2.3051544E-1],"split_indices":[0,1,1,5,1,1,5,0,0,0,0,0,0,0,0],"split_type":[0,0,0,0,0,0,0,0,0,0,0,0,0,0,0],"sum_hessian":[7.166E3,5.808E3,1.358E3,3.354E3,2.454E3,8.72E2,4.86E2,6.22E2,2.732E3,1.084E3,1.37E3,5.39E2,3.33E2,2.06E2,2.8E2],"tree_param":{"num_deleted":"0","num_feature":"41","num_nodes":"15","size_leaf_vector":"1"}},{"base_weights":[8.039702E-3,2.1364E0,-9.000084E0,3.8517296E0,-7.037546E-1,-6.759532E0,-1.2744299E1,2.6277933E-2,9.497057E-2,-5.1664617E-2,1.1388741E-2,-1.1108365E-1,-1.785286E-1,-2.3133044E-1,-3.235456E-1],"categories":[],"categories_nodes":[],"categories_segments":[],"categories_sizes":[],"default_left":[0,0,0,0,0,0,0,0,0,0,0,0,0,0,0],"id":17,"left_children":[1,3,5,7,9,11,13,-1,-1,-1,-1,-1,-1,-1,-1],"loss_changes":[1.3723634E5,2.8210752E4,1.1388211E4,8.20925E3,5.2206606E3,2.189957E3,1.8762266E3,0E0,0E0,0E0,0E0,0E0,0E0,0E0,0E0],"parents":[2147483647,0,0,1,1,2,2,3,3,4,4,5,5,6,6],"right_children":[2,4,6,8,10,12,14,-1,-1,-1,-1,-1,-1,-1,-1],"split_conditions":[3.742E3,2.517E3,4.338E2,1.998E3,2.005E3,3.796E2,6.08E3,2.6277933E-2,9.497057E-2,-5.1664617E-2,1.1388741E-2,-1.1108365E-1,-1.785286E-1,-2.3133044E-1,-3.235456E-1],"split_indices":[3,3,1,5,5,1,3,0,0,0,0,0,0,0,0],"split_type":[0,0,0,0,0,0,0,0,0,0,0,0,0,0,0],"sum_hessian":[7.156E3,5.789E3,1.367E3,3.609E3,2.18E3,8.57E2,5.1E2,9.43E2,2.666E3,8.8E2,1.3E3,5.53E2,3.04E2,3.83E2,1.27E2],"tree_param":{"num_deleted":"0","num_feature":"41","num_nodes":"15","size_leaf_vector":"1"}},{"base_weights":[4.904753E-3,2.1020796E0,-8.872359E0,3.9212902E0,-4.4190758E-1,-6.7613297E0,-1.2689194E1,9.685727E-2,5.6100897E-2,1.7191347E-2,-3.4292582E-2,-1.0317961E-1,-1.6288763E-1,-2.317243E-1,-3.3076653E-1],"categories":[],"categories_nodes":[],"categories_segments":[],"categories_sizes":[],"default_left":[0,0,0,0,0,0,0,0,0,0,0,0,0,0,0],"id":18,"left_children":[1,3,5,7,9,11,13,-1,-1,-1,-1,-1,-1,-1,-1],"loss_changes":[1.3463877E5,2.7076164E4,1.1047656E4,3.4945508E3,4.0432124E3,1.9334414E3,1.8901172E3,0E0,0E0,0E0,0E0,0E0,0E0,0E0,0E0],"parents":[2147483647,0,0,1,1,2,2,3,3,4,4,5,5,6,6],"right_children":[2,4,6,8,10,12,14,-1,-1,-1,-1,-1,-1,-1,-1],"split_conditions":[3.742E3,2.398E3,5.138E3,1.908E3,2.973E3,4.44E3,6.202E3,9.685727E-2,5.6100897E-2,1.7191347E-2,-3.4292582E-2,-1.0317961E-1,-1.6288763E-1,-2.317243E-1,-3.3076653E-1],"split_indices":[3,3,3,3,3,3,3,0,0,0,0,0,0,0,0],"split_type":[0,0,0,0,0,0,0,0,0,0,0,0,0,0,0],"sum_hessian":[7.23E3,5.849E3,1.381E3,3.41E3,2.439E3,8.91E2,4.9E2,1.866E3,1.544E3,1.206E3,1.233E3,4.15E2,4.76E2,3.84E2,1.06E2],"tree_param":{"num_deleted":"0","num_feature":"41","num_nodes":"15","size_leaf_vector":"1"}},{"base_weights":[-9.211124E-3,2.3699274E0,-7.440468E0,4.134618E0,3.5435548E-1,-4.40231E0,-1.0904937E1,2.4972597E-2,9.710436E-2,-4.491037E-2,2.3011396E-2,-1.303538E-1,-6.523459E-2,-1.9090524E-1,-2.9280537E-1],"categories":[],"categories_nodes":[],"categories_segments":[],"categories_sizes":[],"default_left":[0,0,0,0,0,0,0,0,0,0,0,0,0,0,0],"id":19,"left_children":[1,3,5,7,9,11,13,-1,-1,-1,-1,-1,-1,-1,-1],"loss_changes":[1.2634167E5,1.9251371E4,1.8191328E4,5.9951797E3,5.235578E3,2.2095684E3,3.9666172E3,0E0,0E0,0E0,0E0,0E0,0E0,0E0,0E0],"parents":[2147483647,0,0,1,1,2,2,3,3,4,4,5,5,6,6],"right_children":[2,4,6,8,10,12,14,-1,-1,-1,-1,-1,-1,-1,-1],"split_conditions":[2.608E2,1.644E2,3.796E2,1.994E3,1.996E3,2.002E3,5.67E3,2.4972597E-2,9.710436E-2,-4.491037E-2,2.3011396E-2,-1.303538E-1,-6.523459E-2,-1.9090524E-1,-2.9280537E-1],"split_indices":[1,1,1,5,5,5,3,0,0,0,0,0,0,0,0],"split_type":[0,0,0,0,0,0,0,0,0,0,0,0,0,0,0],"sum_hessian":[7.144E3,5.412E3,1.732E3,2.885E3,2.527E3,9.24E2,8.08E2,5.77E2,2.308E3,5.92E2,1.935E3,3.22E2,6.02E2,5.95E2,2.13E2],"tree_param":{"num_deleted":"0","num_feature":"41","num_nodes":"15","size_leaf_vector":"1"}},{"base_weights":[1.5632112E-2,2.2616007E0,-7.5502605E0,4.0903273E0,2.5804558E-1,-4.464319E0,-1.0679879E1,5.222359E-2,1.09221935E-1,-3.3256263E-2,2.5030047E-2,-1.4151344E-1,-7.096463E-2,-1.8872352E-1,-2.8423187E-1],"categories":[],"categories_nodes":[],"categories_segments":[],"categories_sizes":[],"default_left":[0,0,0,0,0,0,0,0,0,0,0,0,0,0,0],"id":20,"left_children":[1,3,5,7,9,11,13,-1,-1,-1,-1,-1,-1,-1,-1],"loss_changes":[1.2182063E5,2.025285E4,1.5799281E4,5.8446133E3,5.0380176E3,1.9545957E3,3.4389531E3,0E0,0E0,0E0,0E0,0E0,0E0,0E0,0E0],"parents":[2147483647,0,0,1,1,2,2,3,3,4,4,5,5,6,6],"right_children":[2,4,6,8,10,12,14,-1,-1,-1,-1,-1,-1,-1,-1],"split_conditions":[3.439E3,1.638E2,3.796E2,2.009E3,2.002E3,1.997E3,5.67E3,5.222359E-2,1.09221935E-1,-3.3256263E-2,2.5030047E-2,-1.4151344E-1,-7.096463E-2,-1.8872352E-1,-2.8423187E-1],"split_indices":[3,1,1,5,5,5,3,0,0,0,0,0,0,0,0],"split_type":[0,0,0,0,0,0,0,0,0,0,0,0,0,0,0],"sum_hessian":[7.167E3,5.527E3,1.64E3,2.889E3,2.638E3,8.27E2,8.13E2,1.391E3,1.498E3,8.99E2,1.739E3,2.13E2,6.14E2,6.04E2,2.09E2],"tree_param":{"num_deleted":"0","num_feature":"41","num_nodes":"15","size_leaf_vector":"1"}},{"base_weights":[3.933931E-4,1.9538089E0,-8.46192E0,3.486511E0,-7.7836174E-1,-7.460704E0,-1.3377356E1,4.167591E-2,9.864371E-2,-7.254875E-2,7.6135603E-4,-1.902306E-1,-1.2140056E-1,-3.123279E-1,-2.3852813E-1],"categories":[],"categories_nodes":[],"categories_segments":[],"categories_sizes":[],"default_left":[0,0,0,0,0,0,0,0,0,0,0,0,0,0,0],"id":21,"left_children":[1,3,5,7,9,11,13,-1,-1,-1,-1,-1,-1,-1,-1],"loss_changes":[1.18902625E5,2.447534E4,6.5371016E3,7.5813594E3,4.88757E3,3.143539E3,5.4846094E2,0E0,0E0,0E0,0E0,0E0,0E0,0E0,0E0],"parents":[2147483647,0,0,1,1,2,2,3,3,4,4,5,5,6,6],"right_children":[2,4,6,8,10,12,14,-1,-1,-1,-1,-1,-1,-1,-1],"split_conditions":[8E0,6E0,1E1,2.01E3,1.995E3,2.005E3,2.003E3,4.167591E-2,9.864371E-2,-7.254875E-2,7.6135603E-4,-1.902306E-1,-1.2140056E-1,-3.123279E-1,-2.3852813E-1],"split_indices":[0,0,0,5,5,5,5,0,0,0,0,0,0,0,0],"split_type":[0,0,0,0,0,0,0,0,0,0,0,0,0,0,0],"sum_hessian":[7.191E3,5.843E3,1.348E3,3.743E3,2.1E3,1.122E3,2.26E2,1.901E3,1.842E3,4.67E2,1.633E3,4.51E2,6.71E2,8.5E1,1.41E2],"tree_param":{"num_deleted":"0","num_feature":"41","num_nodes":"15","size_leaf_vector":"1"}},{"base_weights":[-5.955283E-3,2.174475E0,-7.2536573E0,3.8924682E0,1.8595204E-1,-4.721486E0,-1.06290455E1,1.360122E-2,8.988326E-2,-2.3113238E-2,2.9387826E-2,-1.4619844E-1,-7.5183995E-2,-1.8671536E-1,-2.7030045E-1],"categories":[],"categories_nodes":[],"categories_segments":[],"categories_sizes":[],"default_left":[0,0,0,0,0,0,0,0,0,0,0,0,0,0,0],"id":22,"left_children":[1,3,5,7,9,11,13,-1,-1,-1,-1,-1,-1,-1,-1],"loss_changes":[1.1411472E5,1.8962578E4,1.4221875E4,5.7525703E3,4.4338486E3,2.3526367E3,2.5401875E3,0E0,0E0,0E0,0E0,0E0,0E0,0E0,0E0],"parents":[2147483647,0,0,1,1,2,2,3,3,4,4,5,5,6,6],"right_children":[2,4,6,8,10,12,14,-1,-1,-1,-1,-1,-1,-1,-1],"split_conditions":[3.439E3,2.233E3,4.796E3,1.991E3,2.009E3,1.997E3,5.67E3,1.360122E-2,8.988326E-2,-2.3113238E-2,2.9387826E-2,-1.4619844E-1,-7.5183995E-2,-1.8671536E-1,-2.7030045E-1],"split_indices":[3,3,3,5,5,5,3,0,0,0,0,0,0,0,0],"split_type":[0,0,0,0,0,0,0,0,0,0,0,0,0,0,0],"sum_hessian":[7.219E3,5.55E3,1.669E3,2.977E3,2.573E3,9.55E2,7.14E2,4.7E2,2.507E3,1.258E3,1.315E3,2.57E2,6.98E2,4.96E2,2.18E2],"tree_param":{"num_deleted":"0","num_feature":"41","num_nodes":"15","size_leaf_vector":"1"}},{"base_weights":[-2.6966352E-2,2.1283715E0,-7.1445174E0,3.8388267E0,2.2287278E-1,-4.2619853E0,-1.0119819E1,1.6012412E-2,8.960404E-2,-4.397582E-2,1.9145407E-2,-1.2498193E-1,-6.250517E-2,-1.785944E-1,-2.684482E-1],"categories":[],"categories_nodes":[],"categories_segments":[],"categories_sizes":[],"default_left":[0,0,0,0,0,0,0,0,0,0,0,0,0,0,0],"id":23,"left_children":[1,3,5,7,9,11,13,-1,-1,-1,-1,-1,-1,-1,-1],"loss_changes":[1.1048429E5,1.8015986E4,1.4312328E4,5.672242E3,4.654443E3,1.9040332E3,3.1126328E3,0E0,0E0,0E0,0E0,0E0,0E0,0E0,0E0],"parents":[2147483647,0,0,1,1,2,2,3,3,4,4,5,5,6,6],"right_children":[2,4,6,8,10,12,14,-1,-1,-1,-1,-1,-1,-1,-1],"split_conditions":[3.439E3,1.644E2,3.796E2,1.992E3,1.996E3,2.002E3,5.67E3,1.6012412E-2,8.960404E-2,-4.397582E-2,1.9145407E-2,-1.2498193E-1,-6.250517E-2,-1.785944E-1,-2.684482E-1],"split_indices":[3,1,1,5,5,5,3,0,0,0,0,0,0,0,0],"split_type":[0,0,0,0,0,0,0,0,0,0,0,0,0,0,0],"sum_hessian":[7.2E3,5.527E3,1.673E3,2.912E3,2.615E3,8.51E2,8.22E2,5.08E2,2.404E3,6.08E2,2.007E3,3.08E2,5.43E2,6.07E2,2.15E2],"tree_param":{"num_deleted":"0","num_feature":"41","num_nodes":"15","size_leaf_vector":"1"}},{"base_weights":[-4.110467E-3,2.1442087E0,-6.7808766E0,3.7749245E0,3.3948085E-1,-3.998388E0,-9.896332E0,8.853432E-2,3.7805084E-2,2.6034951E-2,-2.4389166E-2,-5.9011124E-2,-1.08148165E-1,-1.6756673E-1,-2.468369E-1],"categories":[],"categories_nodes":[],"categories_segments":[],"categories_sizes":[],"default_left":[0,0,0,0,0,0,0,0,0,0,0,0,0,0,0],"id":24,"left_children":[1,3,5,7,9,11,13,-1,-1,-1,-1,-1,-1,-1,-1],"loss_changes":[1.0457527E5,1.6049424E4,1.4947258E4,3.5103984E3,3.8868945E3,1.3341309E3,2.9200234E3,0E0,0E0,0E0,0E0,0E0,0E0,0E0,0E0],"parents":[2147483647,0,0,1,1,2,2,3,3,4,4,5,5,6,6],"right_children":[2,4,6,8,10,12,14,-1,-1,-1,-1,-1,-1,-1,-1],"split_conditions":[2.608E2,1.633E2,3.796E2,4.17E-1,2.151E2,3.065E2,4.655E2,8.853432E-2,3.7805084E-2,2.6034951E-2,-2.4389166E-2,-5.9011124E-2,-1.08148165E-1,-1.6756673E-1,-2.468369E-1],"split_indices":[1,1,1,11,1,1,1,0,0,0,0,0,0,0,0],"split_type":[0,0,0,0,0,0,0,0,0,0,0,0,0,0,0],"sum_hessian":[7.181E3,5.453E3,1.728E3,2.864E3,2.589E3,9.14E2,8.14E2,2.127E3,7.37E2,1.601E3,9.88E2,5.26E2,3.88E2,5.05E2,3.09E2],"tree_param":{"num_deleted":"0","num_feature":"41","num_nodes":"15","size_leaf_vector":"1"}},{"base_weights":[8.2506624E-4,1.74711E0,-8.100871E0,3.0222464E0,-1.2438227E0,-6.313645E0,-1.128892E1,3.689693E-2,9.0749614E-2,-5.5010784E-2,4.11268E-3,-1.869627E-1,-1.13462366E-1,-2.8561637E-1,-2.0155011E-1],"categories":[],"categories_nodes":[],"categories_segments":[],"categories_sizes":[],"default_left":[0,0,0,0,0,0,0,0,0,0,0,0,0,0,0],"id":25,"left_children":[1,3,5,7,9,11,13,-1,-1,-1,-1,-1,-1,-1,-1],"loss_changes":[1.0156693E5,2.2528518E4,7.1802188E3,7.3786836E3,3.8576238E3,1.5353887E3,1.5063867E3,0E0,0E0,0E0,0E0,0E0,0E0,0E0,0E0],"parents":[2147483647,0,0,1,1,2,2,3,3,4,4,5,5,6,6],"right_children":[2,4,6,8,10,12,14,-1,-1,-1,-1,-1,-1,-1,-1],"split_conditions":[2.962E2,2.013E2,4.425E2,2.012E3,2.009E3,1.992E3,1.998E3,3.689693E-2,9.0749614E-2,-5.5010784E-2,4.11268E-3,-1.869627E-1,-1.13462366E-1,-2.8561637E-1,-2.0155011E-1],"split_indices":[1,1,1,5,5,5,5,0,0,0,0,0,0,0,0],"split_type":[0,0,0,0,0,0,0,0,0,0,0,0,0,0,0],"sum_hessian":[7.177E3,5.905E3,1.272E3,4.14E3,1.765E3,8.17E2,4.55E2,2.331E3,1.809E3,8.65E2,9E2,1.4E2,6.77E2,1.28E2,3.27E2],"tree_param":{"num_deleted":"0","num_feature":"41","num_nodes":"15","size_leaf_vector":"1"}},{"base_weights":[-1.6508972E-2,2.0890055E0,-6.523314E0,3.6558678E0,3.189129E-1,-3.8240173E0,-9.5917425E0,1.6985968E-2,8.496248E-2,-2.526025E-2,3.0584808E-2,-1.14613555E-1,-5.626304E-2,-2.340889E-1,-1.586338E-1],"categories":[],"categories_nodes":[],"categories_segments":[],"categories_sizes":[],"default_left":[0,0,0,0,0,0,0,0,0,0,0,0,0,0,0],"id":26,"left_children":[1,3,5,7,9,11,13,-1,-1,-1,-1,-1,-1,-1,-1],"loss_changes":[9.862791E4,1.5083451E4,1.4539359E4,4.7913594E3,4.893884E3,1.7909043E3,2.791625E3,0E0,0E0,0E0,0E0,0E0,0E0,0E0,0E0],"parents":[2147483647,0,0,1,1,2,2,3,3,4,4,5,5,6,6],"right_children":[2,4,6,8,10,12,14,-1,-1,-1,-1,-1,-1,-1,-1],"split_conditions":[2.608E2,1.638E2,3.796E2,1.992E3,2.006E3,2.002E3,2.007E3,1.6985968E-2,8.496248E-2,-2.526025E-2,3.0584808E-2,-1.14613555E-1,-5.626304E-2,-2.340889E-1,-1.586338E-1],"split_indices":[1,1,1,5,5,5,5,0,0,0,0,0,0,0,0],"split_type":[0,0,0,0,0,0,0,0,0,0,0,0,0,0,0],"sum_hessian":[7.197E3,5.438E3,1.759E3,2.884E3,2.554E3,9.37E2,8.22E2,5.03E2,2.381E3,1.107E3,1.447E3,3.23E2,6.14E2,3.59E2,4.63E2],"tree_param":{"num_deleted":"0","num_feature":"41","num_nodes":"15","size_leaf_vector":"1"}},{"base_weights":[-1.1271929E-2,1.7323542E0,-7.4408665E0,3.307217E0,-4.4097978E-1,-5.601953E0,-1.0662299E1,7.920475E-2,2.8429313E-2,1.41712E-2,-3.5823137E-2,-8.431523E-2,-1.4106014E-1,-1.9351782E-1,-2.8069642E-1],"categories":[],"categories_nodes":[],"categories_segments":[],"categories_sizes":[],"default_left":[0,0,0,0,0,0,0,0,0,0,0,0,0,0,0],"id":27,"left_children":[1,3,5,7,9,11,13,-1,-1,-1,-1,-1,-1,-1,-1],"loss_changes":[9.323357E4,1.9952678E4,8.0425938E3,4.156078E3,3.8039792E3,1.725125E3,1.5118594E3,0E0,0E0,0E0,0E0,0E0,0E0,0E0,0E0],"parents":[2147483647,0,0,1,1,2,2,3,3,4,4,5,5,6,6],"right_children":[2,4,6,8,10,12,14,-1,-1,-1,-1,-1,-1,-1,-1],"split_conditions":[3.742E3,2.398E3,4.338E2,4.17E-1,2.256E2,3.566E2,6.202E3,7.920475E-2,2.8429313E-2,1.41712E-2,-3.5823137E-2,-8.431523E-2,-1.4106014E-1,-1.9351782E-1,-2.8069642E-1],"split_indices":[3,3,1,11,1,1,3,0,0,0,0,0,0,0,0],"split_type":[0,0,0,0,0,0,0,0,0,0,0,0,0,0,0],"sum_hessian":[7.195E3,5.828E3,1.367E3,3.379E3,2.449E3,8.72E2,4.95E2,2.509E3,8.7E2,1.323E3,1.126E3,4.48E2,4.24E2,3.86E2,1.09E2],"tree_param":{"num_deleted":"0","num_feature":"41","num_nodes":"15","size_leaf_vector":"1"}},{"base_weights":[-2.2108037E-2,1.7472985E0,-6.991108E0,3.1782196E0,-3.2192805E-1,-5.2084937E0,-1.0479863E1,3.698315E-2,8.977827E-2,-5.530234E-2,7.425183E-3,-1.4424117E-1,-8.346324E-2,-2.5087196E-1,-1.7840318E-1],"categories":[],"categories_nodes":[],"categories_segments":[],"categories_sizes":[],"default_left":[0,0,0,0,0,0,0,0,0,0,0,0,0,0,0],"id":28,"left_children":[1,3,5,7,9,11,13,-1,-1,-1,-1,-1,-1,-1,-1],"loss_changes":[8.8241E4,1.689916E4,8.955328E3,5.8685547E3,3.9540989E3,1.9622188E3,1.4599648E3,0E0,0E0,0E0,0E0,0E0,0E0,0E0,0E0],"parents":[2147483647,0,0,1,1,2,2,3,3,4,4,5,5,6,6],"right_children":[2,4,6,8,10,12,14,-1,-1,-1,-1,-1,-1,-1,-1],"split_conditions":[3.623E3,2.398E3,5.138E3,2.009E3,1.995E3,2.002E3,2.006E3,3.698315E-2,8.977827E-2,-5.530234E-2,7.425183E-3,-1.4424117E-1,-8.346324E-2,-2.5087196E-1,-1.7840318E-1],"split_indices":[3,3,3,5,5,5,5,0,0,0,0,0,0,0,0],"split_type":[0,0,0,0,0,0,0,0,0,0,0,0,0,0,0],"sum_hessian":[7.154E3,5.706E3,1.448E3,3.373E3,2.333E3,9.6E2,4.88E2,1.676E3,1.697E3,5.15E2,1.818E3,3.25E2,6.35E2,2.07E2,2.81E2],"tree_param":{"num_deleted":"0","num_feature":"41","num_nodes":"15","size_leaf_vector":"1"}},{"base_weights":[6.1445106E-3,1.638387E0,-7.2421317E0,2.9719536E0,-8.1814617E-1,-5.7405114E0,-1.0766766E1,3.4352656E-2,8.547805E-2,-4.7190648E-2,6.632778E-3,-1.5237E-1,-9.251208E-2,-2.6298475E-1,-1.8690616E-1],"categories":[],"categories_nodes":[],"categories_segments":[],"categories_sizes":[],"default_left":[0,0,0,0,0,0,0,0,0,0,0,0,0,0,0],"id":29,"left_children":[1,3,5,7,9,11,13,-1,-1,-1,-1,-1,-1,-1,-1],"loss_changes":[8.470903E4,1.91473E4,6.9016875E3,6.1780977E3,3.6465298E3,1.9002871E3,1.2024062E3,0E0,0E0,0E0,0E0,0E0,0E0,0E0,0E0],"parents":[2147483647,0,0,1,1,2,2,3,3,4,4,5,5,6,6],"right_children":[2,4,6,8,10,12,14,-1,-1,-1,-1,-1,-1,-1,-1],"split_conditions":[3.799E3,2.603E3,5.291E3,2.01E3,2.006E3,2.004E3,2.003E3,3.4352656E-2,8.547805E-2,-4.7190648E-2,6.632778E-3,-1.5237E-1,-9.251208E-2,-2.6298475E-1,-1.8690616E-1],"split_indices":[3,3,3,5,5,5,5,0,0,0,0,0,0,0,0],"split_type":[0,0,0,0,0,0,0,0,0,0,0,0,0,0,0],"sum_hessian":[7.158E3,5.843E3,1.315E3,3.787E3,2.056E3,9.24E2,3.91E2,1.93E3,1.857E3,8.78E2,1.178E3,3.42E2,5.82E2,1.43E2,2.48E2],"tree_param":{"num_deleted":"0","num_feature":"41","num_nodes":"15","size_leaf_vector":"1"}},{"base_weights":[2.2066459E-2,1.9259746E0,-6.012814E0,3.5247424E0,3.6572325E-1,-3.510793E0,-8.831234E0,3.1868093E-2,8.646549E-2,-3.8968075E-2,2.1467175E-2,-1.0740254E-1,-5.1382206E-2,-1.5492353E-1,-2.3457058E-1],"categories":[],"categories_nodes":[],"categories_segments":[],"categories_sizes":[],"default_left":[0,0,0,0,0,0,0,0,0,0,0,0,0,0,0],"id":30,"left_children":[1,3,5,7,9,11,13,-1,-1,-1,-1,-1,-1,-1,-1],"loss_changes":[8.269219E4,1.3645621E4,1.2139078E4,4.1596406E3,4.538041E3,1.5892354E3,2.4567656E3,0E0,0E0,0E0,0E0,0E0,0E0,0E0,0E0],"parents":[2147483647,0,0,1,1,2,2,3,3,4,4,5,5,6,6],"right_children":[2,4,6,8,10,12,14,-1,-1,-1,-1,-1,-1,-1,-1],"split_conditions":[2.608E2,1.592E2,3.796E2,2E3,1.996E3,2.002E3,5.67E3,3.1868093E-2,8.646549E-2,-3.8968075E-2,2.1467175E-2,-1.0740254E-1,-5.1382206E-2,-1.5492353E-1,-2.3457058E-1],"split_indices":[1,1,1,5,5,5,3,0,0,0,0,0,0,0,0],"split_type":[0,0,0,0,0,0,0,0,0,0,0,0,0,0,0],"sum_hessian":[7.195E3,5.47E3,1.725E3,2.701E3,2.769E3,9.15E2,8.1E2,7.91E2,1.91E3,6.48E2,2.121E3,3.06E2,6.09E2,5.92E2,2.18E2],"tree_param":{"num_deleted":"0","num_feature":"41","num_nodes":"15","size_leaf_vector":"1"}},{"base_weights":[-3.3531673E-2,1.9667311E0,-5.6431365E0,3.6478243E0,6.6455233E-1,-3.292774E0,-8.727077E0,8.577885E-2,4.0691145E-2,2.4483392E-2,-3.1182507E-2,-4.7591362E-2,-9.682616E-2,-1.6030297E-1,-2.5811473E-1],"categories":[],"categories_nodes":[],"categories_segments":[],"categories_sizes":[],"default_left":[0,0,0,0,0,0,0,0,0,0,0,0,0,0,0],"id":31,"left_children":[1,3,5,7,9,11,13,-1,-1,-1,-1,-1,-1,-1,-1],"loss_changes":[8.119311E4,1.1673717E4,1.3756477E4,2.3984785E3,3.743811E3,1.5164336E3,2.3398398E3,0E0,0E0,0E0,0E0,0E0,0E0,0E0,0E0],"parents":[2147483647,0,0,1,1,2,2,3,3,4,4,5,5,6,6],"right_children":[2,4,6,8,10,12,14,-1,-1,-1,-1,-1,-1,-1,-1],"split_conditions":[2.537E2,1.494E2,3.796E2,4.14E-1,4.29E-1,3.065E2,4.976E2,8.577885E-2,4.0691145E-2,2.4483392E-2,-3.1182507E-2,-4.7591362E-2,-9.682616E-2,-1.6030297E-1,-2.5811473E-1],"split_indices":[1,1,1,11,11,1,1,0,0,0,0,0,0,0,0],"split_type":[0,0,0,0,0,0,0,0,0,0,0,0,0,0,0],"sum_hessian":[7.234E3,5.333E3,1.901E3,2.327E3,3.006E3,1.08E3,8.21E2,1.664E3,6.63E2,2.402E3,6.04E2,6.81E2,3.99E2,7.04E2,1.17E2],"tree_param":{"num_deleted":"0","num_feature":"41","num_nodes":"15","size_leaf_vector":"1"}},{"base_weights":[1.9202508E-2,1.8081772E0,-5.9904833E0,3.227096E0,1.16216704E-1,-3.8170974E0,-8.924235E0,8.654629E-2,4.9031164E-2,2.0422986E-2,-2.3229053E-2,-5.223739E-2,-9.9580236E-2,-1.5999682E-1,-2.4494714E-1],"categories":[],"categories_nodes":[],"categories_segments":[],"categories_sizes":[],"default_left":[0,0,0,0,0,0,0,0,0,0,0,0,0,0,0],"id":32,"left_children":[1,3,5,7,9,11,13,-1,-1,-1,-1,-1,-1,-1,-1],"loss_changes":[7.695658E4,1.3241855E4,1.043434E4,2.548498E3,2.911339E3,1.3095879E3,2.044168E3,0E0,0E0,0E0,0E0,0E0,0E0,0E0,0E0],"parents":[2147483647,0,0,1,1,2,2,3,3,4,4,5,5,6,6],"right_children":[2,4,6,8,10,12,14,-1,-1,-1,-1,-1,-1,-1,-1],"split_conditions":[3.439E3,2.247E3,4.031E2,1.215E2,2.169E2,4.023E3,5.928E3,8.654629E-2,4.9031164E-2,2.0422986E-2,-2.3229053E-2,-5.223739E-2,-9.9580236E-2,-1.5999682E-1,-2.4494714E-1],"split_indices":[3,3,1,1,1,3,3,0,0,0,0,0,0,0,0],"split_type":[0,0,0,0,0,0,0,0,0,0,0,0,0,0,0],"sum_hessian":[7.156E3,5.515E3,1.641E3,2.999E3,2.516E3,9.44E2,6.97E2,1.238E3,1.761E3,1.473E3,1.043E3,4.65E2,4.79E2,5.48E2,1.49E2],"tree_param":{"num_deleted":"0","num_feature":"41","num_nodes":"15","size_leaf_vector":"1"}},{"base_weights":[-5.407284E-4,1.7680917E0,-5.845006E0,3.2538283E0,1.9549884E-1,-3.9656346E0,-8.847439E0,6.190601E-3,7.5012475E-2,-1.6309999E-2,3.365331E-2,-1.2815939E-1,-6.0772784E-2,-2.245513E-1,-1.5013543E-1],"categories":[],"categories_nodes":[],"categories_segments":[],"categories_sizes":[],"default_left":[0,0,0,0,0,0,0,0,0,0,0,0,0,0,0],"id":33,"left_children":[1,3,5,7,9,11,13,-1,-1,-1,-1,-1,-1,-1,-1],"loss_changes":[7.452809E4,1.2931316E4,9.415129E3,4.1613184E3,4.0459377E3,2.3160674E3,1.9688203E3,0E0,0E0,0E0,0E0,0E0,0E0,0E0,0E0],"parents":[2147483647,0,0,1,1,2,2,3,3,4,4,5,5,6,6],"right_children":[2,4,6,8,10,12,14,-1,-1,-1,-1,-1,-1,-1,-1],"split_conditions":[3.439E3,2.188E3,4.912E3,1.99E3,2.013E3,1.997E3,2.003E3,6.190601E-3,7.5012475E-2,-1.6309999E-2,3.365331E-2,-1.2815939E-1,-6.0772784E-2,-2.245513E-1,-1.5013543E-1],"split_indices":[3,3,3,5,5,5,5,0,0,0,0,0,0,0,0],"split_type":[0,0,0,0,0,0,0,0,0,0,0,0,0,0,0],"sum_hessian":[7.208E3,5.534E3,1.674E3,2.845E3,2.689E3,1.031E3,6.43E2,4.11E2,2.434E3,1.601E3,1.088E3,2.82E2,7.49E2,2.29E2,4.14E2],"tree_param":{"num_deleted":"0","num_feature":"41","num_nodes":"15","size_leaf_vector":"1"}},{"base_weights":[-8.16379E-3,1.7885251E0,-5.5883274E0,3.4153335E0,4.9290758E-1,-3.5870154E0,-8.567938E0,4.7076184E-2,9.2882395E-2,-1.1283632E-2,4.038614E-2,-1.1384028E-1,-5.5863064E-2,-2.2484487E-1,-1.4853355E-1],"categories":[],"categories_nodes":[],"categories_segments":[],"categories_sizes":[],"default_left":[0,0,0,0,0,0,0,0,0,0,0,0,0,0,0],"id":34,"left_children":[1,3,5,7,9,11,13,-1,-1,-1,-1,-1,-1,-1,-1],"loss_changes":[7.199575E4,1.1447068E4,1.03975625E4,3.12933E3,4.882245E3,1.734544E3,2.0572031E3,0E0,0E0,0E0,0E0,0E0,0E0,0E0,0E0],"parents":[2147483647,0,0,1,1,2,2,3,3,4,4,5,5,6,6],"right_children":[2,4,6,8,10,12,14,-1,-1,-1,-1,-1,-1,-1,-1],"split_conditions":[2.608E2,1.53E2,4.031E2,2.011E3,2.013E3,1.998E3,2E3,4.7076184E-2,9.2882395E-2,-1.1283632E-2,4.038614E-2,-1.1384028E-1,-5.5863064E-2,-2.2484487E-1,-1.4853355E-1],"split_indices":[1,1,1,5,5,5,5,0,0,0,0,0,0,0,0],"split_type":[0,0,0,0,0,0,0,0,0,0,0,0,0,0,0],"sum_hessian":[7.179E3,5.431E3,1.748E3,2.407E3,3.024E3,1.047E3,7.01E2,1.293E3,1.114E3,1.787E3,1.237E3,2.85E2,7.62E2,2.07E2,4.94E2],"tree_param":{"num_deleted":"0","num_feature":"41","num_nodes":"15","size_leaf_vector":"1"}},{"base_weights":[-1.8251767E-2,1.9482756E0,-4.8607116E0,3.55713E0,8.793794E-1,-2.7999754E0,-7.9956007E0,1.3892751E-2,8.1315614E-2,-2.6591674E-3,4.7708996E-2,-1.1789514E-1,-4.5188647E-2,-2.0159034E-1,-1.306021E-1],"categories":[],"categories_nodes":[],"categories_segments":[],"categories_sizes":[],"default_left":[0,0,0,0,0,0,0,0,0,0,0,0,0,0,0],"id":35,"left_children":[1,3,5,7,9,11,13,-1,-1,-1,-1,-1,-1,-1,-1],"loss_changes":[6.887887E4,8.842559E3,1.3471848E4,2.9858848E3,4.7147666E3,2.0970186E3,2.4612031E3,0E0,0E0,0E0,0E0,0E0,0E0,0E0,0E0],"parents":[2147483647,0,0,1,1,2,2,3,3,4,4,5,5,6,6],"right_children":[2,4,6,8,10,12,14,-1,-1,-1,-1,-1,-1,-1,-1],"split_conditions":[2.464E2,1.438E2,3.796E2,1.99E3,2.013E3,1.988E3,2.006E3,1.3892751E-2,8.1315614E-2,-2.6591674E-3,4.7708996E-2,-1.1789514E-1,-4.5188647E-2,-2.0159034E-1,-1.306021E-1],"split_indices":[1,1,1,5,5,5,5,0,0,0,0,0,0,0,0],"split_type":[0,0,0,0,0,0,0,0,0,0,0,0,0,0,0],"sum_hessian":[7.231E3,5.143E3,2.088E3,2.052E3,3.091E3,1.261E3,8.27E2,3.1E2,1.742E3,1.849E3,1.242E3,1.86E2,1.075E3,3.39E2,4.88E2],"tree_param":{"num_deleted":"0","num_feature":"41","num_nodes":"15","size_leaf_vector":"1"}},{"base_weights":[9.947681E-3,2.168785E0,-4.1893253E0,3.6420696E0,1.2256087E0,-2.3957808E0,-7.8110175E0,3.960727E-2,8.8002935E-2,-9.29554E-3,4.1065868E-2,-7.1080714E-2,-2.2648092E-2,-1.3572551E-1,-2.1080586E-1],"categories":[],"categories_nodes":[],"categories_segments":[],"categories_sizes":[],"default_left":[0,0,0,0,0,0,0,0,0,0,0,0,0,0,0],"id":36,"left_children":[1,3,5,7,9,11,13,-1,-1,-1,-1,-1,-1,-1,-1],"loss_changes":[6.525363E4,6.6010527E3,1.5855672E4,2.3273945E3,4.058522E3,2.3894834E3,2.1893516E3,0E0,0E0,0E0,0E0,0E0,0E0,0E0,0E0],"parents":[2147483647,0,0,1,1,2,2,3,3,4,4,5,5,6,6],"right_children":[2,4,6,8,10,12,14,-1,-1,-1,-1,-1,-1,-1,-1],"split_conditions":[2.278E2,1.386E2,3.796E2,2.001E3,2.002E3,2.01E3,5.67E3,3.960727E-2,8.8002935E-2,-9.29554E-3,4.1065868E-2,-7.1080714E-2,-2.2648092E-2,-1.3572551E-1,-2.1080586E-1],"split_indices":[1,1,1,5,5,5,3,0,0,0,0,0,0,0,0],"split_type":[0,0,0,0,0,0,0,0,0,0,0,0,0,0,0],"sum_hessian":[7.196E3,4.753E3,2.443E3,1.854E3,2.899E3,1.635E3,8.08E2,5.82E2,1.272E3,9.53E2,1.946E3,8.52E2,7.83E2,5.9E2,2.18E2],"tree_param":{"num_deleted":"0","num_feature":"41","num_nodes":"15","size_leaf_vector":"1"}},{"base_weights":[-3.6878403E-2,1.3091506E0,-6.593714E0,2.4070911E0,-1.1393356E0,-5.316207E0,-9.264973E0,6.896722E-2,3.0088648E-2,-3.0698793E-4,-3.303692E-2,-9.0913504E-2,-1.2230726E-1,-1.6568166E-1,-2.396239E-1],"categories":[],"categories_nodes":[],"categories_segments":[],"categories_sizes":[],"default_left":[0,0,0,0,0,0,0,0,0,0,0,0,0,0,0],"id":37,"left_children":[1,3,5,7,9,11,13,-1,-1,-1,-1,-1,-1,-1,-1],"loss_changes":[6.316581E4,1.5965951E4,4.1091875E3,3.8479531E3,1.0591724E3,4.8038086E2,9.4579297E2,0E0,0E0,0E0,0E0,0E0,0E0,0E0,0E0],"parents":[2147483647,0,0,1,1,2,2,3,3,4,4,5,5,6,6],"right_children":[2,4,6,8,10,12,14,-1,-1,-1,-1,-1,-1,-1,-1],"split_conditions":[3.988E3,2.752E3,5.291E3,1.931E3,3.017E3,4.653E3,6.202E3,6.896722E-2,3.0088648E-2,-3.0698793E-4,-3.303692E-2,-9.0913504E-2,-1.2230726E-1,-1.6568166E-1,-2.396239E-1],"split_indices":[3,3,3,3,3,3,3,0,0,0,0,0,0,0,0],"split_type":[0,0,0,0,0,0,0,0,0,0,0,0,0,0,0],"sum_hessian":[7.155E3,5.937E3,1.218E3,4.099E3,1.838E3,8.26E2,3.92E2,1.902E3,2.197E3,5.76E2,1.262E3,4.24E2,4.02E2,2.91E2,1.01E2],"tree_param":{"num_deleted":"0","num_feature":"41","num_nodes":"15","size_leaf_vector":"1"}},{"base_weights":[-2.1371203E-2,1.6279916E0,-5.1431217E0,2.9227777E0,2.2161688E-1,-3.1138458E0,-7.532749E0,2.820898E-2,7.621269E-2,-5.1662225E-2,1.4045291E-2,-9.622769E-2,-4.437943E-2,-1.875126E-1,-1.20509624E-1],"categories":[],"categories_nodes":[],"categories_segments":[],"categories_sizes":[],"default_left":[0,0,0,0,0,0,0,0,0,0,0,0,0,0,0],"id":38,"left_children":[1,3,5,7,9,11,13,-1,-1,-1,-1,-1,-1,-1,-1],"loss_changes":[6.0620434E4,9.883181E3,8.451902E3,3.788662E3,3.5106943E3,1.4271924E3,2.1696992E3,0E0,0E0,0E0,0E0,0E0,0E0,0E0,0E0],"parents":[2147483647,0,0,1,1,2,2,3,3,4,4,5,5,6,6],"right_children":[2,4,6,8,10,12,14,-1,-1,-1,-1,-1,-1,-1,-1],"split_conditions":[2.608E2,2.188E3,3.796E2,2.004E3,1.99E3,2.002E3,2.007E3,2.820898E-2,7.621269E-2,-5.1662225E-2,1.4045291E-2,-9.622769E-2,-4.437943E-2,-1.875126E-1,-1.20509624E-1],"split_indices":[1,3,1,5,5,5,5,0,0,0,0,0,0,0,0],"split_type":[0,0,0,0,0,0,0,0,0,0,0,0,0,0,0],"sum_hessian":[7.174E3,5.427E3,1.747E3,2.825E3,2.602E3,9.46E2,8.01E2,1.046E3,1.779E3,3.8E2,2.222E3,3.25E2,6.21E2,3.58E2,4.43E2],"tree_param":{"num_deleted":"0","num_feature":"41","num_nodes":"15","size_leaf_vector":"1"}},{"base_weights":[-4.7975343E-2,1.2489583E0,-6.361253E0,2.303036E0,-1.1170019E0,-4.956808E0,-8.730164E0,7.10449E-2,2.8169414E-2,-1.1546026E-2,-6.455115E-2,-8.8627584E-2,-1.3339978E-1,-1.5823211E-1,-2.3957513E-1],"categories":[],"categories_nodes":[],"categories_segments":[],"categories_sizes":[],"default_left":[0,0,0,0,0,0,0,0,0,0,0,0,0,0,0],"id":39,"left_children":[1,3,5,7,9,11,13,-1,-1,-1,-1,-1,-1,-1,-1],"loss_changes":[5.85192E4,1.4789057E4,4.0076523E3,4.5784844E3,2.0799727E3,6.5975E2,1.1051836E3,0E0,0E0,0E0,0E0,0E0,0E0,0E0,0E0],"parents":[2147483647,0,0,1,1,2,2,3,3,4,4,5,5,6,6],"right_children":[2,4,6,8,10,12,14,-1,-1,-1,-1,-1,-1,-1,-1],"split_conditions":[3.065E2,2.013E2,4.425E2,1.355E2,4.34E-1,4.17E-1,5.16E2,7.10449E-2,2.8169414E-2,-1.1546026E-2,-6.455115E-2,-8.8627584E-2,-1.3339978E-1,-1.5823211E-1,-2.3957513E-1],"split_indices":[1,1,1,1,11,11,1,0,0,0,0,0,0,0,0],"split_type":[0,0,0,0,0,0,0,0,0,0,0,0,0,0,0],"sum_hessian":[7.145E3,5.928E3,1.217E3,4.101E3,1.827E3,7.66E2,4.51E2,1.71E3,2.391E3,1.456E3,3.71E2,5.89E2,1.77E2,3.63E2,8.8E1],"tree_param":{"num_deleted":"0","num_feature":"41","num_nodes":"15","size_leaf_vector":"1"}},{"base_weights":[2.7182275E-2,1.7120156E0,-4.6367087E0,3.3105137E0,6.9714785E-1,-2.7231338E0,-7.267933E0,1.2921876E-2,7.570986E-2,-2.837291E-2,2.6517648E-2,-1.1889312E-1,-4.3856576E-2,-1.2723804E-1,-2.0283876E-1],"categories":[],"categories_nodes":[],"categories_segments":[],"categories_sizes":[],"default_left":[0,0,0,0,0,0,0,0,0,0,0,0,0,0,0],"id":40,"left_children":[1,3,5,7,9,11,13,-1,-1,-1,-1,-1,-1,-1,-1],"loss_changes":[5.6584375E4,8.57907E3,9.60118E3,2.596537E3,4.307964E3,1.8790459E3,2.0273945E3,0E0,0E0,0E0,0E0,0E0,0E0,0E0,0E0],"parents":[2147483647,0,0,1,1,2,2,3,3,4,4,5,5,6,6],"right_children":[2,4,6,8,10,12,14,-1,-1,-1,-1,-1,-1,-1,-1],"split_conditions":[3.268E3,1.438E2,3.796E2,1.99E3,1.996E3,1.988E3,5.731E3,1.2921876E-2,7.570986E-2,-2.837291E-2,2.6517648E-2,-1.1889312E-1,-4.3856576E-2,-1.2723804E-1,-2.0283876E-1],"split_indices":[3,1,1,5,5,5,3,0,0,0,0,0,0,0,0],"split_type":[0,0,0,0,0,0,0,0,0,0,0,0,0,0,0],"sum_hessian":[7.199E3,5.289E3,1.91E3,2.053E3,3.236E3,1.107E3,8.03E2,3.11E2,1.742E3,7.41E2,2.495E3,1.55E2,9.52E2,6.13E2,1.9E2],"tree_param":{"num_deleted":"0","num_feature":"41","num_nodes":"15","size_leaf_vector":"1"}},{"base_weights":[2.8478084E-2,1.6667902E0,-4.6274643E0,2.9739332E0,4.410288E-1,-2.4970057E0,-6.821908E0,2.6452595E-2,7.2994284E-2,-1.5270949E-2,3.2422952E-2,-7.2693124E-2,-2.6203105E-2,-1.7365292E-1,-1.1040007E-1],"categories":[],"categories_nodes":[],"categories_segments":[],"categories_sizes":[],"default_left":[0,0,0,0,0,0,0,0,0,0,0,0,0,0,0],"id":41,"left_children":[1,3,5,7,9,11,13,-1,-1,-1,-1,-1,-1,-1,-1],"loss_changes":[5.5065504E4,8.554337E3,8.766684E3,2.878213E3,3.9205183E3,1.2842036E3,2.1914648E3,0E0,0E0,0E0,0E0,0E0,0E0,0E0,0E0],"parents":[2147483647,0,0,1,1,2,2,3,3,4,4,5,5,6,6],"right_children":[2,4,6,8,10,12,14,-1,-1,-1,-1,-1,-1,-1,-1],"split_conditions":[2.537E2,2.11E3,3.566E2,2E3,2.009E3,2.01E3,2.006E3,2.6452595E-2,7.2994284E-2,-1.5270949E-2,3.2422952E-2,-7.2693124E-2,-2.6203105E-2,-1.7365292E-1,-1.1040007E-1],"split_indices":[1,3,1,5,5,5,5,0,0,0,0,0,0,0,0],"split_type":[0,0,0,0,0,0,0,0,0,0,0,0,0,0,0],"sum_hessian":[7.217E3,5.339E3,1.878E3,2.583E3,2.756E3,9.54E2,9.24E2,7.51E2,1.832E3,1.364E3,1.392E3,4.86E2,4.68E2,3.78E2,5.46E2],"tree_param":{"num_deleted":"0","num_feature":"41","num_nodes":"15","size_leaf_vector":"1"}},{"base_weights":[-4.2676046E-3,1.2235808E0,-6.082804E0,2.2186034E0,-1.0937951E0,-4.8749332E0,-8.596781E0,-6.941104E-3,5.3131856E-2,-6.827955E-2,-8.037781E-3,-1.2901594E-1,-7.6793656E-2,-1.9670263E-1,-1.3439211E-1],"categories":[],"categories_nodes":[],"categories_segments":[],"categories_sizes":[],"default_left":[0,0,0,0,0,0,0,0,0,0,0,0,0,0,0],"id":42,"left_children":[1,3,5,7,9,11,13,-1,-1,-1,-1,-1,-1,-1,-1],"loss_changes":[5.3827383E4,1.3837588E4,3.6370547E3,4.718576E3,2.8926885E3,1.3135918E3,8.4349805E2,0E0,0E0,0E0,0E0,0E0,0E0,0E0,0E0],"parents":[2147483647,0,0,1,1,2,2,3,3,4,4,5,5,6,6],"right_children":[2,4,6,8,10,12,14,-1,-1,-1,-1,-1,-1,-1,-1],"split_conditions":[3.065E2,2.023E2,5.291E3,1.99E3,1.995E3,2.005E3,2.012E3,-6.941104E-3,5.3131856E-2,-6.827955E-2,-8.037781E-3,-1.2901594E-1,-7.6793656E-2,-1.9670263E-1,-1.3439211E-1],"split_indices":[1,1,3,5,5,5,5,0,0,0,0,0,0,0,0],"split_type":[0,0,0,0,0,0,0,0,0,0,0,0,0,0,0],"sum_hessian":[7.21E3,5.999E3,1.211E3,4.197E3,1.802E3,8.2E2,3.91E2,6.12E2,3.585E3,4.13E2,1.389E3,3.23E2,4.97E2,2.33E2,1.58E2],"tree_param":{"num_deleted":"0","num_feature":"41","num_nodes":"15","size_leaf_vector":"1"}},{"base_weights":[-8.693413E-3,1.1827301E0,-5.890442E0,2.1648295E0,-1.0473754E0,-4.518666E0,-8.158625E0,6.9574416E-2,2.881668E-2,-1.0867117E-2,-6.494527E-2,-7.6149315E-2,-1.144782E-1,-1.4581382E-1,-2.1532361E-1],"categories":[],"categories_nodes":[],"categories_segments":[],"categories_sizes":[],"default_left":[0,0,0,0,0,0,0,0,0,0,0,0,0,0,0],"id":43,"left_children":[1,3,5,7,9,11,13,-1,-1,-1,-1,-1,-1,-1,-1],"loss_changes":[5.058868E4,1.31500625E4,3.745375E3,3.9593125E3,2.0335885E3,6.2870215E2,9.5397656E2,0E0,0E0,0E0,0E0,0E0,0E0,0E0,0E0],"parents":[2147483647,0,0,1,1,2,2,3,3,4,4,5,5,6,6],"right_children":[2,4,6,8,10,12,14,-1,-1,-1,-1,-1,-1,-1,-1],"split_conditions":[3.988E3,2.013E2,4.425E2,1.271E2,4.4E-1,3.93E-1,6.202E3,6.9574416E-2,2.881668E-2,-1.0867117E-2,-6.494527E-2,-7.6149315E-2,-1.144782E-1,-1.4581382E-1,-2.1532361E-1],"split_indices":[3,1,1,1,11,11,3,0,0,0,0,0,0,0,0],"split_type":[0,0,0,0,0,0,0,0,0,0,0,0,0,0,0],"sum_hessian":[7.217E3,6.002E3,1.215E3,4.167E3,1.835E3,7.59E2,4.56E2,1.479E3,2.688E3,1.494E3,3.41E2,4.8E2,2.79E2,3.45E2,1.11E2],"tree_param":{"num_deleted":"0","num_feature":"41","num_nodes":"15","size_leaf_vector":"1"}},{"base_weights":[-3.3509922E-3,1.5595629E0,-4.3841724E0,3.048247E0,6.1565644E-1,-2.77872E0,-7.05438E0,7.756923E-2,4.952774E-2,2.3641624E-2,-1.5717175E-2,-3.9726283E-2,-8.3479166E-2,-1.2970166E-1,-2.2032765E-1],"categories":[],"categories_nodes":[],"categories_segments":[],"categories_sizes":[],"default_left":[0,0,0,0,0,0,0,0,0,0,0,0,0,0,0],"id":44,"left_children":[1,3,5,7,9,11,13,-1,-1,-1,-1,-1,-1,-1,-1],"loss_changes":[4.9420812E4,7.4733076E3,8.1159336E3,9.696797E2,2.5865479E3,1.3034346E3,1.5327656E3,0E0,0E0,0E0,0E0,0E0,0E0,0E0,0E0],"parents":[2147483647,0,0,1,1,2,2,3,3,4,4,5,5,6,6],"right_children":[2,4,6,8,10,12,14,-1,-1,-1,-1,-1,-1,-1,-1],"split_conditions":[2.537E2,1.438E2,4.031E2,1.1E2,2.108E2,3.222E2,5.16E2,7.756923E-2,4.952774E-2,2.3641624E-2,-1.5717175E-2,-3.9726283E-2,-8.3479166E-2,-1.2970166E-1,-2.2032765E-1],"split_indices":[1,1,1,1,1,1,1,0,0,0,0,0,0,0,0],"split_type":[0,0,0,0,0,0,0,0,0,0,0,0,0,0,0],"sum_hessian":[7.216E3,5.319E3,1.897E3,2.063E3,3.256E3,1.186E3,7.11E2,8.39E2,1.224E3,2.319E3,9.37E2,7.58E2,4.28E2,6.24E2,8.7E1],"tree_param":{"num_deleted":"0","num_feature":"41","num_nodes":"15","size_leaf_vector":"1"}},{"base_weights":[1.6241195E-2,1.1865075E0,-5.6259446E0,2.0718691E0,-1.0335215E0,-4.2824597E0,-7.66513E0,2.3213318E-2,6.8012744E-2,-4.866128E-2,-1.656256E-3,-1.0750662E-1,-5.778196E-2,-1.9622764E-1,-1.2773894E-1],"categories":[],"categories_nodes":[],"categories_segments":[],"categories_sizes":[],"default_left":[0,0,0,0,0,0,0,0,0,0,0,0,0,0,0],"id":45,"left_children":[1,3,5,7,9,11,13,-1,-1,-1,-1,-1,-1,-1,-1],"loss_changes":[4.754682E4,1.1724659E4,3.3548828E3,5.1583555E3,2.2628247E3,1.1226709E3,1.2799355E3,0E0,0E0,0E0,0E0,0E0,0E0,0E0,0E0],"parents":[2147483647,0,0,1,1,2,2,3,3,4,4,5,5,6,6],"right_children":[2,4,6,8,10,12,14,-1,-1,-1,-1,-1,-1,-1,-1],"split_conditions":[3.958E3,2.808E3,4.373E2,2.013E3,2.005E3,2.012E3,2.003E3,2.3213318E-2,6.8012744E-2,-4.866128E-2,-1.656256E-3,-1.0750662E-1,-5.778196E-2,-1.9622764E-1,-1.2773894E-1],"split_indices":[3,3,1,5,5,5,5,0,0,0,0,0,0,0,0],"split_type":[0,0,0,0,0,0,0,0,0,0,0,0,0,0,0],"sum_hessian":[7.199E3,5.963E3,1.236E3,4.263E3,1.7E3,7.47E2,4.89E2,2.53E3,1.733E3,6.87E2,1.013E3,4.17E2,3.3E2,1.8E2,3.09E2],"tree_param":{"num_deleted":"0","num_feature":"41","num_nodes":"15","size_leaf_vector":"1"}},{"base_weights":[2.0807157E-3,1.7906733E0,-3.4432735E0,8.390453E-1,3.0355065E0,-1.8388928E0,-6.0796657E0,5.153007E-2,2.7485942E-3,8.50924E-2,4.6577513E-2,-5.614671E-2,-1.1359809E-2,-1.5979767E-1,-9.462554E-2],"categories":[],"categories_nodes":[],"categories_segments":[],"categories_sizes":[],"default_left":[0,0,0,0,0,0,0,0,0,0,0,0,0,0,0],"id":46,"left_children":[1,3,5,7,9,11,13,-1,-1,-1,-1,-1,-1,-1,-1],"loss_changes":[4.4541195E4,5.6334775E3,1.0435574E4,3.2883115E3,1.7649102E3,1.8898018E3,2.3666484E3,0E0,0E0,0E0,0E0,0E0,0E0,0E0,0E0],"parents":[2147483647,0,0,1,1,2,2,3,3,4,4,5,5,6,6],"right_children":[2,4,6,8,10,12,14,-1,-1,-1,-1,-1,-1,-1,-1],"split_conditions":[2.278E2,2.012E3,3.566E2,1.252E2,1.349E2,2.012E3,2.006E3,5.153007E-2,2.7485942E-3,8.50924E-2,4.6577513E-2,-5.614671E-2,-1.1359809E-2,-1.5979767E-1,-9.462554E-2],"split_indices":[1,5,1,1,1,5,5,0,0,0,0,0,0,0,0],"split_type":[0,0,0,0,0,0,0,0,0,0,0,0,0,0,0],"sum_hessian":[7.226E3,4.757E3,2.469E3,2.697E3,2.06E3,1.536E3,9.33E2,7.75E2,1.922E3,7.54E2,1.306E3,8.71E2,6.65E2,3.84E2,5.49E2],"tree_param":{"num_deleted":"0","num_feature":"41","num_nodes":"15","size_leaf_vector":"1"}},{"base_weights":[-2.7524699E-2,1.3396041E0,-4.5269895E0,2.3502371E0,-1.3209718E-1,-3.2405872E0,-7.243688E0,2.5870351E-2,6.8748884E-2,-5.367197E-2,6.0353456E-3,-1.2926811E-1,-5.487803E-2,-1.9652666E-1,-1.2716594E-1],"categories":[],"categories_nodes":[],"categories_segments":[],"categories_sizes":[],"default_left":[0,0,0,0,0,0,0,0,0,0,0,0,0,0,0],"id":47,"left_children":[1,3,5,7,9,11,13,-1,-1,-1,-1,-1,-1,-1,-1],"loss_changes":[4.442527E4,8.238964E3,5.857172E3,3.7679805E3,2.4984531E3,1.8125771E3,1.1706934E3,0E0,0E0,0E0,0E0,0E0,0E0,0E0,0E0],"parents":[2147483647,0,0,1,1,2,2,3,3,4,4,5,5,6,6],"right_children":[2,4,6,8,10,12,14,-1,-1,-1,-1,-1,-1,-1,-1],"split_conditions":[3.439E3,2.368E3,5.077E3,2.01E3,1.989E3,1.986E3,1.997E3,2.5870351E-2,6.8748884E-2,-5.367197E-2,6.0353456E-3,-1.2926811E-1,-5.487803E-2,-1.9652666E-1,-1.2716594E-1],"split_indices":[3,3,3,5,5,5,5,0,0,0,0,0,0,0,0],"split_type":[0,0,0,0,0,0,0,0,0,0,0,0,0,0,0],"sum_hessian":[7.22E3,5.538E3,1.682E3,3.283E3,2.255E3,1.143E3,5.39E2,1.666E3,1.617E3,3.27E2,1.928E3,1.51E2,9.92E2,1.35E2,4.04E2],"tree_param":{"num_deleted":"0","num_feature":"41","num_nodes":"15","size_leaf_vector":"1"}},{"base_weights":[-1.257154E-3,1.40984E0,-4.0952535E0,2.7288923E0,4.2005655E-1,-2.5855465E0,-6.5228047E0,3.2060614E-3,6.33383E-2,-9.676071E-3,3.4142807E-2,-8.723952E-2,-3.8242206E-2,-1.7840494E-1,-1.10067E-1],"categories":[],"categories_nodes":[],"categories_segments":[],"categories_sizes":[],"default_left":[0,0,0,0,0,0,0,0,0,0,0,0,0,0,0],"id":48,"left_children":[1,3,5,7,9,11,13,-1,-1,-1,-1,-1,-1,-1,-1],"loss_changes":[4.1537082E4,6.979455E3,6.736617E3,2.5778887E3,3.556127E3,1.3524346E3,1.6749883E3,0E0,0E0,0E0,0E0,0E0,0E0,0E0,0E0],"parents":[2147483647,0,0,1,1,2,2,3,3,4,4,5,5,6,6],"right_children":[2,4,6,8,10,12,14,-1,-1,-1,-1,-1,-1,-1,-1],"split_conditions":[2.555E2,1.494E2,4.031E2,1.99E3,2.013E3,1.998E3,2E3,3.2060614E-3,6.33383E-2,-9.676071E-3,3.4142807E-2,-8.723952E-2,-3.8242206E-2,-1.7840494E-1,-1.10067E-1],"split_indices":[1,1,1,5,5,5,5,0,0,0,0,0,0,0,0],"split_type":[0,0,0,0,0,0,0,0,0,0,0,0,0,0,0],"sum_hessian":[7.188E3,5.346E3,1.842E3,2.291E3,3.055E3,1.137E3,7.05E2,3.34E2,1.957E3,1.795E3,1.26E3,3.11E2,8.26E2,2.08E2,4.97E2],"tree_param":{"num_deleted":"0","num_feature":"41","num_nodes":"15","size_leaf_vector":"1"}},{"base_weights":[2.957182E-2,1.7319925E0,-3.2258577E0,3.0145452E0,1.0071664E0,-1.5078791E0,-5.6033015E0,7.065252E-2,3.278486E-2,2.8583497E-2,-2.1694493E-2,-2.0791262E-2,-6.2649846E-2,-9.394997E-2,-1.5999378E-1],"categories":[],"categories_nodes":[],"categories_segments":[],"categories_sizes":[],"default_left":[0,0,0,0,0,0,0,0,0,0,0,0,0,0,0],"id":49,"left_children":[1,3,5,7,9,11,13,-1,-1,-1,-1,-1,-1,-1,-1],"loss_changes":[3.9914176E4,4.3927715E3,1.0091557E4,1.209959E3,2.6702773E3,1.0896423E3,2.2121191E3,0E0,0E0,0E0,0E0,0E0,0E0,0E0,0E0],"parents":[2147483647,0,0,1,1,2,2,3,3,4,4,5,5,6,6],"right_children":[2,4,6,8,10,12,14,-1,-1,-1,-1,-1,-1,-1,-1],"split_conditions":[3.017E3,1.349E2,3.398E2,4.15E-1,4.37E-1,4.3E-1,5.492E3,7.065252E-2,3.278486E-2,2.8583497E-2,-2.1694493E-2,-2.0791262E-2,-6.2649846E-2,-9.394997E-2,-1.5999378E-1],"split_indices":[3,1,1,11,11,11,3,0,0,0,0,0,0,0,0],"split_type":[0,0,0,0,0,0,0,0,0,0,0,0,0,0,0],"sum_hessian":[7.2E3,4.728E3,2.472E3,1.706E3,3.022E3,1.436E3,1.036E3,1.238E3,4.68E2,2.515E3,5.07E2,1.116E3,3.2E2,7.54E2,2.82E2],"tree_param":{"num_deleted":"0","num_feature":"41","num_nodes":"15","size_leaf_vector":"1"}},{"base_weights":[-2.0453412E-2,1.6664524E0,-3.2495306E0,8.1566846E-1,2.9237328E0,-1.8573E0,-6.0434318E0,4.7662664E-2,3.6839729E-3,8.2298085E-2,4.4609603E-2,-8.7972365E-2,-2.8353931E-2,-1.5623131E-1,-9.5501624E-2],"categories":[],"categories_nodes":[],"categories_segments":[],"categories_sizes":[],"default_left":[0,0,0,0,0,0,0,0,0,0,0,0,0,0,0],"id":50,"left_children":[1,3,5,7,9,11,13,-1,-1,-1,-1,-1,-1,-1,-1],"loss_changes":[3.9399355E4,5.0792617E3,9.642355E3,2.805406E3,1.5732129E3,1.8454541E3,1.8115977E3,0E0,0E0,0E0,0E0,0E0,0E0,0E0,0E0],"parents":[2147483647,0,0,1,1,2,2,3,3,4,4,5,5,6,6],"right_children":[2,4,6,8,10,12,14,-1,-1,-1,-1,-1,-1,-1,-1],"split_conditions":[2.267E2,2.013E3,3.796E2,1.252E2,1.349E2,1.988E3,2.006E3,4.7662664E-2,3.6839729E-3,8.2298085E-2,4.4609603E-2,-8.7972365E-2,-2.8353931E-2,-1.5623131E-1,-9.5501624E-2],"split_indices":[1,5,1,1,1,5,5,0,0,0,0,0,0,0,0],"split_type":[0,0,0,0,0,0,0,0,0,0,0,0,0,0,0],"sum_hessian":[7.231E3,4.75E3,2.481E3,2.834E3,1.916E3,1.657E3,8.24E2,8.13E2,2.021E3,7.03E2,1.213E3,2.43E2,1.414E3,3.42E2,4.82E2],"tree_param":{"num_deleted":"0","num_feature":"41","num_nodes":"15","size_leaf_vector":"1"}},{"base_weights":[-1.5599178E-2,1.2777051E0,-4.043069E0,2.587605E0,4.005081E-1,-2.6059747E0,-6.125875E0,3.4864848E-3,6.0291246E-2,-4.403397E-2,1.661962E-2,-7.422273E-2,-3.0252682E-2,-1.1096995E-1,-2.0156199E-1],"categories":[],"categories_nodes":[],"categories_segments":[],"categories_sizes":[],"default_left":[0,0,0,0,0,0,0,0,0,0,0,0,0,0,0],"id":51,"left_children":[1,3,5,7,9,11,13,-1,-1,-1,-1,-1,-1,-1,-1],"loss_changes":[3.720108E4,6.210376E3,5.179338E3,2.2329932E3,3.6299539E3,1.2372236E3,1.558123E3,0E0,0E0,0E0,0E0,0E0,0E0,0E0,0E0],"parents":[2147483647,0,0,1,1,2,2,3,3,4,4,5,5,6,6],"right_children":[2,4,6,8,10,12,14,-1,-1,-1,-1,-1,-1,-1,-1],"split_conditions":[2.608E2,1.472E2,4.031E2,1.99E3,1.99E3,2.01E3,5.16E2,3.4864848E-3,6.0291246E-2,-4.403397E-2,1.661962E-2,-7.422273E-2,-3.0252682E-2,-1.1096995E-1,-2.0156199E-1],"split_indices":[1,1,1,5,5,5,1,0,0,0,0,0,0,0,0],"split_type":[0,0,0,0,0,0,0,0,0,0,0,0,0,0,0],"sum_hessian":[7.14E3,5.405E3,1.735E3,2.167E3,3.238E3,1.028E3,7.07E2,3.26E2,1.841E3,4.59E2,2.779E3,5.1E2,5.18E2,6.19E2,8.8E1],"tree_param":{"num_deleted":"0","num_feature":"41","num_nodes":"15","size_leaf_vector":"1"}},{"base_weights":[-7.2582494E-3,1.5121284E0,-3.270527E0,-4.5373056E-2,2.151443E0,-2.051719E0,-6.038101E0,2.3769494E-2,-1.8250117E-2,5.946611E-2,2.1323172E-2,-7.77891E-2,-2.8488511E-2,-1.6536959E-1,-1.0178326E-1],"categories":[],"categories_nodes":[],"categories_segments":[],"categories_sizes":[],"default_left":[0,0,0,0,0,0,0,0,0,0,0,0,0,0,0],"id":52,"left_children":[1,3,5,7,9,11,13,-1,-1,-1,-1,-1,-1,-1,-1],"loss_changes":[3.5708883E4,4.8933438E3,7.704551E3,1.5320979E3,3.1039932E3,1.8268794E3,1.4360098E3,0E0,0E0,0E0,0E0,0E0,0E0,0E0,0E0],"parents":[2147483647,0,0,1,1,2,2,3,3,4,4,5,5,6,6],"right_children":[2,4,6,8,10,12,14,-1,-1,-1,-1,-1,-1,-1,-1],"split_conditions":[3.105E3,2E3,4.796E3,1.961E3,2.173E3,1.997E3,2E3,2.3769494E-2,-1.8250117E-2,5.946611E-2,2.1323172E-2,-7.77891E-2,-2.8488511E-2,-1.6536959E-1,-1.0178326E-1],"split_indices":[3,5,3,3,3,5,5,0,0,0,0,0,0,0,0],"split_type":[0,0,0,0,0,0,0,0,0,0,0,0,0,0,0],"sum_hessian":[7.2E3,4.913E3,2.287E3,1.43E3,3.483E3,1.589E3,6.98E2,5.9E2,8.4E2,1.981E3,1.502E3,4.03E2,1.186E3,2.06E2,4.92E2],"tree_param":{"num_deleted":"0","num_feature":"41","num_nodes":"15","size_leaf_vector":"1"}},{"base_weights":[2.1426706E-2,1.6178153E0,-3.0752757E0,3.1310883E0,1.0663356E0,-1.4653598E0,-5.207163E0,6.950026E-2,3.4161456E-2,3.1320844E-2,-1.1050578E-2,-2.4436807E-2,-8.022956E-2,-8.710409E-2,-1.4938997E-1],"categories":[],"categories_nodes":[],"categories_segments":[],"categories_sizes":[],"default_left":[0,0,0,0,0,0,0,0,0,0,0,0,0,0,0],"id":53,"left_children":[1,3,5,7,9,11,13,-1,-1,-1,-1,-1,-1,-1,-1],"loss_changes":[3.575157E4,3.978664E3,8.434814E3,6.170547E2,2.8315085E3,8.644761E2,2.0054902E3,0E0,0E0,0E0,0E0,0E0,0E0,0E0,0E0],"parents":[2147483647,0,0,1,1,2,2,3,3,4,4,5,5,6,6],"right_children":[2,4,6,8,10,12,14,-1,-1,-1,-1,-1,-1,-1,-1],"split_conditions":[2.278E2,1.215E2,3.398E2,4.31E-1,4.21E-1,4.71E-1,5.492E3,6.950026E-2,3.4161456E-2,3.1320844E-2,-1.1050578E-2,-2.4436807E-2,-8.022956E-2,-8.710409E-2,-1.4938997E-1],"split_indices":[1,1,1,11,11,11,3,0,0,0,0,0,0,0,0],"split_type":[0,0,0,0,0,0,0,0,0,0,0,0,0,0,0],"sum_hessian":[7.23E3,4.771E3,2.459E3,1.273E3,3.498E3,1.402E3,1.057E3,1.024E3,2.49E2,2.673E3,8.25E2,1.281E3,1.21E2,7.7E2,2.87E2],"tree_param":{"num_deleted":"0","num_feature":"41","num_nodes":"15","size_leaf_vector":"1"}},{"base_weights":[1.9110346E-2,1.2330548E0,-3.8237162E0,2.4467385E0,3.736556E-1,-2.7317498E0,-6.290217E0,5.7934154E-2,2.3896784E-2,1.5399148E-2,-2.735212E-2,-3.2519586E-2,-7.327161E-2,-1.1215082E-1,-1.807649E-1],"categories":[],"categories_nodes":[],"categories_segments":[],"categories_sizes":[],"default_left":[0,0,0,0,0,0,0,0,0,0,0,0,0,0,0],"id":54,"left_children":[1,3,5,7,9,11,13,-1,-1,-1,-1,-1,-1,-1,-1],"loss_changes":[3.3676266E4,5.720914E3,4.649467E3,1.2771104E3,2.2181726E3,1.2330732E3,9.440156E2,0E0,0E0,0E0,0E0,0E0,0E0,0E0,0E0],"parents":[2147483647,0,0,1,1,2,2,3,3,4,4,5,5,6,6],"right_children":[2,4,6,8,10,12,14,-1,-1,-1,-1,-1,-1,-1,-1],"split_conditions":[3.379E3,2.031E3,5.077E3,4.15E-1,4.34E-1,4.023E3,6.202E3,5.7934154E-2,2.3896784E-2,1.5399148E-2,-2.735212E-2,-3.2519586E-2,-7.327161E-2,-1.1215082E-1,-1.807649E-1],"split_indices":[3,3,3,11,11,3,3,0,0,0,0,0,0,0,0],"split_type":[0,0,0,0,0,0,0,0,0,0,0,0,0,0,0],"sum_hessian":[7.217E3,5.485E3,1.732E3,2.273E3,3.212E3,1.202E3,5.3E2,1.671E3,6.02E2,2.617E3,5.95E2,5.51E2,6.51E2,4.27E2,1.03E2],"tree_param":{"num_deleted":"0","num_feature":"41","num_nodes":"15","size_leaf_vector":"1"}},{"base_weights":[-1.1277742E-2,1.522424E0,-2.8901317E0,7.104172E-1,2.7007632E0,-1.5213264E0,-5.230265E0,4.3636084E-2,2.8898036E-3,8.635123E-2,4.594737E-2,-8.566667E-2,-2.2985406E-2,-1.3699584E-1,-8.164717E-2],"categories":[],"categories_nodes":[],"categories_segments":[],"categories_sizes":[],"default_left":[0,0,0,0,0,0,0,0,0,0,0,0,0,0,0],"id":55,"left_children":[1,3,5,7,9,11,13,-1,-1,-1,-1,-1,-1,-1,-1],"loss_changes":[3.1922764E4,4.5110576E3,8.0409766E3,2.3260098E3,1.2442666E3,1.6253696E3,1.6942988E3,0E0,0E0,0E0,0E0,0E0,0E0,0E0,0E0],"parents":[2147483647,0,0,1,1,2,2,3,3,4,4,5,5,6,6],"right_children":[2,4,6,8,10,12,14,-1,-1,-1,-1,-1,-1,-1,-1],"split_conditions":[2.267E2,2.013E3,3.566E2,1.224E2,1.12E2,1.985E3,2.006E3,4.3636084E-2,2.8898036E-3,8.635123E-2,4.594737E-2,-8.566667E-2,-2.2985406E-2,-1.3699584E-1,-8.164717E-2],"split_indices":[1,5,1,1,1,5,5,0,0,0,0,0,0,0,0],"split_type":[0,0,0,0,0,0,0,0,0,0,0,0,0,0,0],"sum_hessian":[7.228E3,4.716E3,2.512E3,2.793E3,1.923E3,1.586E3,9.26E2,7.75E2,2.018E3,3.82E2,1.541E3,1.87E2,1.399E3,3.82E2,5.44E2],"tree_param":{"num_deleted":"0","num_feature":"41","num_nodes":"15","size_leaf_vector":"1"}},{"base_weights":[2.0348817E-2,1.5207932E0,-2.8612509E0,-8.025982E-1,1.9078659E0,-1.3993248E0,-4.8643346E0,1.21389E-2,-3.0684764E-2,5.7605322E-2,2.3309095E-2,-5.9596147E-2,-1.535661E-2,-1.2125754E-1,-6.679463E-2],"categories":[],"categories_nodes":[],"categories_segments":[],"categories_sizes":[],"default_left":[0,0,0,0,0,0,0,0,0,0,0,0,0,0,0],"id":56,"left_children":[1,3,5,7,9,11,13,-1,-1,-1,-1,-1,-1,-1,-1],"loss_changes":[3.1139037E4,4.260827E3,7.2139043E3,6.9919934E2,2.9272354E3,1.4215769E3,1.8792031E3,0E0,0E0,0E0,0E0,0E0,0E0,0E0,0E0],"parents":[2147483647,0,0,1,1,2,2,3,3,4,4,5,5,6,6],"right_children":[2,4,6,8,10,12,14,-1,-1,-1,-1,-1,-1,-1,-1],"split_conditions":[2.267E2,1.99E3,3.398E2,1.304E2,1.438E2,1.998E3,2.012E3,1.21389E-2,-3.0684764E-2,5.7605322E-2,2.3309095E-2,-5.9596147E-2,-1.535661E-2,-1.2125754E-1,-6.679463E-2],"split_indices":[1,5,1,1,1,5,5,0,0,0,0,0,0,0,0],"split_type":[0,0,0,0,0,0,0,0,0,0,0,0,0,0,0],"sum_hessian":[7.2E3,4.735E3,2.465E3,6.76E2,4.059E3,1.426E3,1.039E3,2.31E2,4.45E2,1.756E3,2.303E3,4.06E2,1.02E3,5.8E2,4.59E2],"tree_param":{"num_deleted":"0","num_feature":"41","num_nodes":"15","size_leaf_vector":"1"}},{"base_weights":[1.1413922E-2,1.3170452E0,-3.2195876E0,3.3887342E-1,2.245659E0,-2.2078595E0,-5.906321E0,3.9014746E-2,-5.201519E-3,6.46642E-2,2.9179968E-2,-9.4412886E-2,-3.545927E-2,-1.6675875E-1,-1.01480424E-1],"categories":[],"categories_nodes":[],"categories_segments":[],"categories_sizes":[],"default_left":[0,0,0,0,0,0,0,0,0,0,0,0,0,0,0],"id":57,"left_children":[1,3,5,7,9,11,13,-1,-1,-1,-1,-1,-1,-1,-1],"loss_changes":[3.0415191E4,4.663325E3,5.626504E3,2.4161694E3,2.041083E3,1.6400161E3,1.1038652E3,0E0,0E0,0E0,0E0,0E0,0E0,0E0,0E0],"parents":[2147483647,0,0,1,1,2,2,3,3,4,4,5,5,6,6],"right_children":[2,4,6,8,10,12,14,-1,-1,-1,-1,-1,-1,-1,-1],"split_conditions":[2.464E2,2.009E3,4.238E2,1.252E2,1.494E2,1.988E3,1.997E3,3.9014746E-2,-5.201519E-3,6.46642E-2,2.9179968E-2,-9.4412886E-2,-3.545927E-2,-1.6675875E-1,-1.01480424E-1],"split_indices":[1,5,1,1,1,5,5,0,0,0,0,0,0,0,0],"split_type":[0,0,0,0,0,0,0,0,0,0,0,0,0,0,0],"sum_hessian":[7.208E3,5.134E3,2.074E3,2.501E3,2.633E3,1.508E3,5.66E2,6.77E2,1.824E3,1.166E3,1.467E3,2.21E2,1.287E3,1.42E2,4.24E2],"tree_param":{"num_deleted":"0","num_feature":"41","num_nodes":"15","size_leaf_vector":"1"}},{"base_weights":[6.7187645E-3,1.4629552E0,-2.7403286E0,6.8208766E-1,2.6057076E0,-1.2351978E0,-4.544236E0,4.172199E-2,3.018823E-3,7.1579196E-2,3.9478224E-2,-4.604986E-2,-8.079016E-3,-7.371101E-2,-1.354152E-1],"categories":[],"categories_nodes":[],"categories_segments":[],"categories_sizes":[],"default_left":[0,0,0,0,0,0,0,0,0,0,0,0,0,0,0],"id":58,"left_children":[1,3,5,7,9,11,13,-1,-1,-1,-1,-1,-1,-1,-1],"loss_changes":[2.867039E4,4.1776074E3,6.7354453E3,2.0755903E3,1.1612998E3,1.2009363E3,2.1325176E3,0E0,0E0,0E0,0E0,0E0,0E0,0E0,0E0],"parents":[2147483647,0,0,1,1,2,2,3,3,4,4,5,5,6,6],"right_children":[2,4,6,8,10,12,14,-1,-1,-1,-1,-1,-1,-1,-1],"split_conditions":[3.017E3,2.013E3,4.133E3,1.224E2,1.901E3,2.006E3,4.655E2,4.172199E-2,3.018823E-3,7.1579196E-2,3.9478224E-2,-4.604986E-2,-8.079016E-3,-7.371101E-2,-1.354152E-1],"split_indices":[3,5,3,1,3,5,1,0,0,0,0,0,0,0,0],"split_type":[0,0,0,0,0,0,0,0,0,0,0,0,0,0,0],"sum_hessian":[7.165E3,4.683E3,2.482E3,2.783E3,1.9E3,1.354E3,1.128E3,7.63E2,2.02E3,7.46E2,1.154E3,5.92E2,7.62E2,8.16E2,3.12E2],"tree_param":{"num_deleted":"0","num_feature":"41","num_nodes":"15","size_leaf_vector":"1"}},{"base_weights":[-5.799309E-3,1.417988E0,-2.7273264E0,-7.521209E-1,1.804947E0,-1.2746532E0,-4.5363116E0,1.0811536E-2,-2.9284226E-2,5.218854E-2,2.18999E-2,-8.3579235E-2,-1.7977023E-2,-7.7923134E-2,-1.505464E-1],"categories":[],"categories_nodes":[],"categories_segments":[],"categories_sizes":[],"default_left":[0,0,0,0,0,0,0,0,0,0,0,0,0,0,0],"id":59,"left_children":[1,3,5,7,9,11,13,-1,-1,-1,-1,-1,-1,-1,-1],"loss_changes":[2.7899225E4,3.9709307E3,6.4923457E3,6.5997455E2,2.2881953E3,1.49429E3,2.077623E3,0E0,0E0,0E0,0E0,0E0,0E0,0E0,0E0],"parents":[2147483647,0,0,1,1,2,2,3,3,4,4,5,5,6,6],"right_children":[2,4,6,8,10,12,14,-1,-1,-1,-1,-1,-1,-1,-1],"split_conditions":[3.017E3,1.99E3,4.189E3,1.883E3,2.007E3,1.985E3,5.731E3,1.0811536E-2,-2.9284226E-2,5.218854E-2,2.18999E-2,-8.3579235E-2,-1.7977023E-2,-7.7923134E-2,-1.505464E-1],"split_indices":[3,5,3,3,3,5,3,0,0,0,0,0,0,0,0],"split_type":[0,0,0,0,0,0,0,0,0,0,0,0,0,0,0],"sum_hessian":[7.198E3,4.726E3,2.472E3,7.15E2,4.011E3,1.372E3,1.1E3,2.54E2,4.61E2,1.879E3,2.132E3,1.56E2,1.216E3,9.08E2,1.92E2],"tree_param":{"num_deleted":"0","num_feature":"41","num_nodes":"15","size_leaf_vector":"1"}},{"base_weights":[-5.130315E-3,1.0439726E0,-3.5180066E0,1.876151E0,-6.7744285E-2,-2.5748036E0,-5.970671E0,1.2082093E-2,5.009326E-2,-4.4870965E-2,6.501864E-3,-1.0992369E-1,-4.278692E-2,-1.0435456E-1,-1.658025E-1],"categories":[],"categories_nodes":[],"categories_segments":[],"categories_sizes":[],"default_left":[0,0,0,0,0,0,0,0,0,0,0,0,0,0,0],"id":60,"left_children":[1,3,5,7,9,11,13,-1,-1,-1,-1,-1,-1,-1,-1],"loss_changes":[2.6586488E4,5.139499E3,3.8216367E3,2.5381758E3,2.0343414E3,1.5140435E3,7.587461E2,0E0,0E0,0E0,0E0,0E0,0E0,0E0,0E0],"parents":[2147483647,0,0,1,1,2,2,3,3,4,4,5,5,6,6],"right_children":[2,4,6,8,10,12,14,-1,-1,-1,-1,-1,-1,-1,-1],"split_conditions":[3.439E3,2.321E3,4.425E2,2.002E3,1.99E3,1.986E3,6.202E3,1.2082093E-2,5.009326E-2,-4.4870965E-2,6.501864E-3,-1.0992369E-1,-4.278692E-2,-1.0435456E-1,-1.658025E-1],"split_indices":[3,3,1,5,5,5,3,0,0,0,0,0,0,0,0],"split_type":[0,0,0,0,0,0,0,0,0,0,0,0,0,0,0],"sum_hessian":[7.212E3,5.554E3,1.658E3,3.176E3,2.378E3,1.199E3,4.59E2,1.051E3,2.125E3,3.63E2,2.015E3,1.54E2,1.045E3,3.49E2,1.1E2],"tree_param":{"num_deleted":"0","num_feature":"41","num_nodes":"15","size_leaf_vector":"1"}},{"base_weights":[3.3865552E-3,1.3837638E0,-2.603462E0,-7.4894184E-1,1.7562683E0,-1.1969508E0,-4.311109E0,2.2264373E-2,-2.4316294E-2,5.206151E-2,2.1960536E-2,-7.8293584E-2,-1.6781034E-2,-1.0925937E-1,-5.72611E-2],"categories":[],"categories_nodes":[],"categories_segments":[],"categories_sizes":[],"default_left":[0,0,0,0,0,0,0,0,0,0,0,0,0,0,0],"id":61,"left_children":[1,3,5,7,9,11,13,-1,-1,-1,-1,-1,-1,-1,-1],"loss_changes":[2.5923004E4,3.7432383E3,5.9844395E3,6.108076E2,2.23196E3,1.3278286E3,1.8616406E3,0E0,0E0,0E0,0E0,0E0,0E0,0E0,0E0],"parents":[2147483647,0,0,1,1,2,2,3,3,4,4,5,5,6,6],"right_children":[2,4,6,8,10,12,14,-1,-1,-1,-1,-1,-1,-1,-1],"split_conditions":[3.017E3,1.99E3,4.133E3,1.127E2,1.438E2,1.985E3,2.012E3,2.2264373E-2,-2.4316294E-2,5.206151E-2,2.1960536E-2,-7.8293584E-2,-1.6781034E-2,-1.0925937E-1,-5.72611E-2],"split_indices":[3,5,3,1,1,5,5,0,0,0,0,0,0,0,0],"split_type":[0,0,0,0,0,0,0,0,0,0,0,0,0,0,0],"sum_hessian":[7.202E3,4.709E3,2.493E3,7E2,4.009E3,1.368E3,1.125E3,1.4E2,5.6E2,1.752E3,2.257E3,1.58E2,1.21E3,6.25E2,5E2],"tree_param":{"num_deleted":"0","num_feature":"41","num_nodes":"15","size_leaf_vector":"1"}},{"base_weights":[3.7783284E-3,1.3226306E0,-2.5861652E0,5.9665614E-1,2.402155E0,-1.3948517E0,-4.5631003E0,3.9639164E-2,1.618137E-3,7.929169E-2,4.0304933E-2,-4.2829283E-2,-4.4392194E-3,-1.228503E-1,-6.844776E-2],"categories":[],"categories_nodes":[],"categories_segments":[],"categories_sizes":[],"default_left":[0,0,0,0,0,0,0,0,0,0,0,0,0,0,0],"id":62,"left_children":[1,3,5,7,9,11,13,-1,-1,-1,-1,-1,-1,-1,-1],"loss_changes":[2.4620625E4,3.741251E3,5.7207617E3,2.0408699E3,1.152085E3,1.329469E3,1.6247383E3,0E0,0E0,0E0,0E0,0E0,0E0,0E0,0E0],"parents":[2147483647,0,0,1,1,2,2,3,3,4,4,5,5,6,6],"right_children":[2,4,6,8,10,12,14,-1,-1,-1,-1,-1,-1,-1,-1],"split_conditions":[2.278E2,2.013E3,3.566E2,1.224E2,1.12E2,2.013E3,2.006E3,3.9639164E-2,1.618137E-3,7.929169E-2,4.0304933E-2,-4.2829283E-2,-4.4392194E-3,-1.228503E-1,-6.844776E-2],"split_indices":[1,5,1,1,1,5,5,0,0,0,0,0,0,0,0],"split_type":[0,0,0,0,0,0,0,0,0,0,0,0,0,0,0],"sum_hessian":[7.206E3,4.775E3,2.431E3,2.856E3,1.919E3,1.518E3,9.13E2,7.74E2,2.082E3,3.79E2,1.54E3,9.27E2,5.91E2,3.81E2,5.32E2],"tree_param":{"num_deleted":"0","num_feature":"41","num_nodes":"15","size_leaf_vector":"1"}},{"base_weights":[1.9197935E-2,1.2116983E0,-2.777912E0,4.9808508E-1,2.2467024E0,-1.929833E0,-5.5406704E0,2.8636826E-2,-5.7095676E-3,6.80635E-2,3.2776415E-2,-9.572601E-2,-3.140812E-2,-9.6145675E-2,-1.6232494E-1],"categories":[],"categories_nodes":[],"categories_segments":[],"categories_sizes":[],"default_left":[0,0,0,0,0,0,0,0,0,0,0,0,0,0,0],"id":63,"left_children":[1,3,5,7,9,11,13,-1,-1,-1,-1,-1,-1,-1,-1],"loss_changes":[2.3925809E4,3.7129878E3,5.0120293E3,2.1793987E3,1.4364707E3,1.6776758E3,9.098037E2,0E0,0E0,0E0,0E0,0E0,0E0,0E0,0E0],"parents":[2147483647,0,0,1,1,2,2,3,3,4,4,5,5,6,6],"right_children":[2,4,6,8,10,12,14,-1,-1,-1,-1,-1,-1,-1,-1],"split_conditions":[3.149E3,2.013E3,4.338E2,1.488E2,1.355E2,1.985E3,6.202E3,2.8636826E-2,-5.7095676E-3,6.80635E-2,3.2776415E-2,-9.572601E-2,-3.140812E-2,-9.6145675E-2,-1.6232494E-1],"split_indices":[3,5,1,1,1,5,3,0,0,0,0,0,0,0,0],"split_type":[0,0,0,0,0,0,0,0,0,0,0,0,0,0,0],"sum_hessian":[7.171E3,5.028E3,2.143E3,2.977E3,2.051E3,1.641E3,5.02E2,1.358E3,1.619E3,7.05E2,1.346E3,1.82E2,1.459E3,3.93E2,1.09E2],"tree_param":{"num_deleted":"0","num_feature":"41","num_nodes":"15","size_leaf_vector":"1"}},{"base_weights":[-1.0934499E-2,8.0475974E-1,-3.9349253E0,1.7047094E0,-3.3425575E-1,-3.463081E0,-7.2484717E0,7.5750328E-3,4.6379045E-2,-2.57581E-2,1.1153554E-2,-8.941273E-2,-4.29825E-2,-1.3016571E-1,-1.9681577E-1],"categories":[],"categories_nodes":[],"categories_segments":[],"categories_sizes":[],"default_left":[0,0,0,0,0,0,0,0,0,0,0,0,0,0,0],"id":64,"left_children":[1,3,5,7,9,11,13,-1,-1,-1,-1,-1,-1,-1,-1],"loss_changes":[2.2969053E4,6.0905684E3,1.9047227E3,2.702044E3,2.2318933E3,1.4234961E3,2.2789404E2,0E0,0E0,0E0,0E0,0E0,0E0,0E0,0E0],"parents":[2147483647,0,0,1,1,2,2,3,3,4,4,5,5,6,6],"right_children":[2,4,6,8,10,12,14,-1,-1,-1,-1,-1,-1,-1,-1],"split_conditions":[3.958E3,2.368E3,5.928E3,2.001E3,2.009E3,2.012E3,5.768E2,7.5750328E-3,4.6379045E-2,-2.57581E-2,1.1153554E-2,-8.941273E-2,-4.29825E-2,-1.3016571E-1,-1.9681577E-1],"split_indices":[3,3,3,5,5,5,1,0,0,0,0,0,0,0,0],"split_type":[0,0,0,0,0,0,0,0,0,0,0,0,0,0,0],"sum_hessian":[7.174E3,5.94E3,1.234E3,3.318E3,2.622E3,1.082E3,1.52E2,1.051E3,2.267E3,1.267E3,1.355E3,6.11E2,4.71E2,1.21E2,3.1E1],"tree_param":{"num_deleted":"0","num_feature":"41","num_nodes":"15","size_leaf_vector":"1"}},{"base_weights":[-1.1713831E-2,1.0052009E0,-3.0783608E0,2.0238836E0,2.7172184E-1,-2.1360466E0,-5.2834587E0,1.391136E-3,4.6644345E-2,-3.6729172E-2,1.3066216E-2,-7.555265E-2,-2.9655067E-2,-1.4953412E-1,-9.011805E-2],"categories":[],"categories_nodes":[],"categories_segments":[],"categories_sizes":[],"default_left":[0,0,0,0,0,0,0,0,0,0,0,0,0,0,0],"id":65,"left_children":[1,3,5,7,9,11,13,-1,-1,-1,-1,-1,-1,-1,-1],"loss_changes":[2.2490938E4,4.0459595E3,3.719871E3,1.3656582E3,2.5351257E3,1.3451431E3,8.8089746E2,0E0,0E0,0E0,0E0,0E0,0E0,0E0,0E0],"parents":[2147483647,0,0,1,1,2,2,3,3,4,4,5,5,6,6],"right_children":[2,4,6,8,10,12,14,-1,-1,-1,-1,-1,-1,-1,-1],"split_conditions":[3.337E3,2.031E3,5.077E3,1.989E3,1.99E3,1.998E3,1.997E3,1.391136E-3,4.6644345E-2,-3.6729172E-2,1.3066216E-2,-7.555265E-2,-2.9655067E-2,-1.4953412E-1,-9.011805E-2],"split_indices":[3,3,3,5,5,5,5,0,0,0,0,0,0,0,0],"split_type":[0,0,0,0,0,0,0,0,0,0,0,0,0,0,0],"sum_hessian":[7.21E3,5.415E3,1.795E3,2.266E3,3.149E3,1.259E3,5.36E2,3.09E2,1.957E3,4.82E2,2.667E3,3.57E2,9.02E2,1.38E2,3.98E2],"tree_param":{"num_deleted":"0","num_feature":"41","num_nodes":"15","size_leaf_vector":"1"}},{"base_weights":[-2.5007457E-3,1.2372673E0,-2.3695056E0,3.5274976E-1,2.0695693E0,-1.2675241E0,-4.228069E0,-2.5389906E-2,1.47457635E-2,5.776156E-2,2.8742071E-2,-4.0096477E-2,-3.0100674E-3,-7.608402E-2,-1.605617E-1],"categories":[],"categories_nodes":[],"categories_segments":[],"categories_sizes":[],"default_left":[0,0,0,0,0,0,0,0,0,0,0,0,0,0,0],"id":66,"left_children":[1,3,5,7,9,11,13,-1,-1,-1,-1,-1,-1,-1,-1],"loss_changes":[2.1249094E4,3.4973818E3,5.0918164E3,1.4387776E3,1.2626943E3,1.2875608E3,1.4597891E3,0E0,0E0,0E0,0E0,0E0,0E0,0E0,0E0],"parents":[2147483647,0,0,1,1,2,2,3,3,4,4,5,5,6,6],"right_children":[2,4,6,8,10,12,14,-1,-1,-1,-1,-1,-1,-1,-1],"split_conditions":[2.267E2,2.009E3,3.566E2,1.983E3,1.438E2,2.013E3,5.16E2,-2.5389906E-2,1.47457635E-2,5.776156E-2,2.8742071E-2,-4.0096477E-2,-3.0100674E-3,-7.608402E-2,-1.605617E-1],"split_indices":[1,5,1,5,1,5,1,0,0,0,0,0,0,0,0],"split_type":[0,0,0,0,0,0,0,0,0,0,0,0,0,0,0],"sum_hessian":[7.239E3,4.751E3,2.488E3,2.304E3,2.447E3,1.563E3,9.25E2,4.41E2,1.863E3,1.065E3,1.382E3,9.41E2,6.22E2,8.34E2,9.1E1],"tree_param":{"num_deleted":"0","num_feature":"41","num_nodes":"15","size_leaf_vector":"1"}},{"base_weights":[-1.4239862E-2,1.2435077E0,-2.404248E0,6.077445E-1,2.2901247E0,-1.1186432E0,-3.9750915E0,2.9601159E-2,-2.2042883E-3,7.278201E-2,3.9118435E-2,-3.584794E-2,-1.8925085E-3,-1.2772691E-1,-6.840158E-2],"categories":[],"categories_nodes":[],"categories_segments":[],"categories_sizes":[],"default_left":[0,0,0,0,0,0,0,0,0,0,0,0,0,0,0],"id":67,"left_children":[1,3,5,7,9,11,13,-1,-1,-1,-1,-1,-1,-1,-1],"loss_changes":[2.1664535E4,3.1403394E3,5.013462E3,1.8409526E3,7.9660645E2,9.43474E2,1.4733691E3,0E0,0E0,0E0,0E0,0E0,0E0,0E0,0E0],"parents":[2147483647,0,0,1,1,2,2,3,3,4,4,5,5,6,6],"right_children":[2,4,6,8,10,12,14,-1,-1,-1,-1,-1,-1,-1,-1],"split_conditions":[2.267E2,2.014E3,3.285E2,1.994E3,1.12E2,2.013E3,1.992E3,2.9601159E-2,-2.2042883E-3,7.278201E-2,3.9118435E-2,-3.584794E-2,-1.8925085E-3,-1.2772691E-1,-6.840158E-2],"split_indices":[1,5,1,3,1,5,5,0,0,0,0,0,0,0,0],"split_type":[0,0,0,0,0,0,0,0,0,0,0,0,0,0,0],"sum_hessian":[7.205E3,4.721E3,2.484E3,2.938E3,1.783E3,1.367E3,1.117E3,1.326E3,1.612E3,3.52E2,1.431E3,8.24E2,5.43E2,2.07E2,9.1E2],"tree_param":{"num_deleted":"0","num_feature":"41","num_nodes":"15","size_leaf_vector":"1"}},{"base_weights":[-1.393779E-2,1.2116908E0,-2.3165498E0,-7.586033E-1,1.5577521E0,-1.2738017E0,-4.2282734E0,1.1259754E-2,-2.786054E-2,4.6901554E-2,1.9012164E-2,-7.5801104E-2,-1.870935E-2,-1.19750395E-1,-6.600646E-2],"categories":[],"categories_nodes":[],"categories_segments":[],"categories_sizes":[],"default_left":[0,0,0,0,0,0,0,0,0,0,0,0,0,0,0],"id":68,"left_children":[1,3,5,7,9,11,13,-1,-1,-1,-1,-1,-1,-1,-1],"loss_changes":[2.0359066E4,3.2113755E3,4.9896396E3,5.9113525E2,1.9119121E3,1.377698E3,1.4224346E3,0E0,0E0,0E0,0E0,0E0,0E0,0E0,0E0],"parents":[2147483647,0,0,1,1,2,2,3,3,4,4,5,5,6,6],"right_children":[2,4,6,8,10,12,14,-1,-1,-1,-1,-1,-1,-1,-1],"split_conditions":[3.017E3,1.99E3,4.536E3,1.304E2,1.438E2,1.985E3,2.003E3,1.1259754E-2,-2.786054E-2,4.6901554E-2,1.9012164E-2,-7.5801104E-2,-1.870935E-2,-1.19750395E-1,-6.600646E-2],"split_indices":[3,5,3,1,1,5,5,0,0,0,0,0,0,0,0],"split_type":[0,0,0,0,0,0,0,0,0,0,0,0,0,0,0],"sum_hessian":[7.212E3,4.707E3,2.505E3,7.03E2,4.004E3,1.622E3,8.83E2,2.28E2,4.75E2,1.742E3,2.262E3,1.91E2,1.431E3,3.03E2,5.8E2],"tree_param":{"num_deleted":"0","num_feature":"41","num_nodes":"15","size_leaf_vector":"1"}},{"base_weights":[3.4890834E-2,1.2169868E0,-2.2300878E0,4.0451533E-1,1.9763727E0,-1.0919405E0,-3.7297387E0,3.3825114E-2,-1.5542371E-3,6.708173E-2,3.323734E-2,-8.3856985E-2,-1.69143E-2,-9.35123E-2,-4.269884E-2],"categories":[],"categories_nodes":[],"categories_segments":[],"categories_sizes":[],"default_left":[0,0,0,0,0,0,0,0,0,0,0,0,0,0,0],"id":69,"left_children":[1,3,5,7,9,11,13,-1,-1,-1,-1,-1,-1,-1,-1],"loss_changes":[1.9261309E4,2.9154238E3,4.2061797E3,1.4181381E3,1.0524727E3,1.067936E3,1.5943594E3,0E0,0E0,0E0,0E0,0E0,0E0,0E0,0E0],"parents":[2147483647,0,0,1,1,2,2,3,3,4,4,5,5,6,6],"right_children":[2,4,6,8,10,12,14,-1,-1,-1,-1,-1,-1,-1,-1],"split_conditions":[2.267E2,2.009E3,3.333E2,1.224E2,1.108E2,1.979E3,2.014E3,3.3825114E-2,-1.5542371E-3,6.708173E-2,3.323734E-2,-8.3856985E-2,-1.69143E-2,-9.35123E-2,-4.269884E-2],"split_indices":[1,5,1,1,1,5,5,0,0,0,0,0,0,0,0],"split_type":[0,0,0,0,0,0,0,0,0,0,0,0,0,0,0],"sum_hessian":[7.192E3,4.726E3,2.466E3,2.284E3,2.442E3,1.403E3,1.063E3,6.22E2,1.662E3,4.52E2,1.99E3,1.02E2,1.301E3,6.66E2,3.97E2],"tree_param":{"num_deleted":"0","num_feature":"41","num_nodes":"15","size_leaf_vector":"1"}},{"base_weights":[-1.54128615E-2,6.9162583E-1,-3.568502E0,1.5096264E0,-3.5014293E-1,-2.9182174E0,-5.6133933E0,3.4349926E-2,-7.570887E-3,-6.8463123E-4,-3.4126423E-2,-4.9082674E-2,-8.61886E-2,-9.4347276E-2,-1.4091153E-1],"categories":[],"categories_nodes":[],"categories_segments":[],"categories_sizes":[],"default_left":[0,0,0,0,0,0,0,0,0,0,0,0,0,0,0],"id":70,"left_children":[1,3,5,7,9,11,13,-1,-1,-1,-1,-1,-1,-1,-1],"loss_changes":[1.8012512E4,5.0966055E3,1.5651826E3,1.3156387E3,1.1269725E3,5.730513E2,3.326045E2,0E0,0E0,0E0,0E0,0E0,0E0,0E0,0E0],"parents":[2147483647,0,0,1,1,2,2,3,3,4,4,5,5,6,6],"right_children":[2,4,6,8,10,12,14,-1,-1,-1,-1,-1,-1,-1,-1],"split_conditions":[4.023E3,5E0,5.492E3,4.62E-1,4.36E-1,4.17E-1,6.202E3,3.4349926E-2,-7.570887E-3,-6.8463123E-4,-3.4126423E-2,-4.9082674E-2,-8.61886E-2,-9.4347276E-2,-1.4091153E-1],"split_indices":[3,0,3,11,11,11,3,0,0,0,0,0,0,0,0],"split_type":[0,0,0,0,0,0,0,0,0,0,0,0,0,0,0],"sum_hessian":[7.168E3,5.979E3,1.189E3,3.349E3,2.63E3,9.04E2,2.85E2,3.017E3,3.32E2,2.134E3,4.96E2,6.8E2,2.24E2,1.78E2,1.07E2],"tree_param":{"num_deleted":"0","num_feature":"41","num_nodes":"15","size_leaf_vector":"1"}},{"base_weights":[-9.324322E-3,7.003459E-1,-3.558343E0,1.31297E0,-6.8621796E-1,-2.988725E0,-6.051262E0,4.5893557E-2,1.7650783E-2,-7.5094146E-3,-4.1078705E-2,-5.079481E-2,-8.794094E-2,-1.0399558E-1,-1.6423473E-1],"categories":[],"categories_nodes":[],"categories_segments":[],"categories_sizes":[],"default_left":[0,0,0,0,0,0,0,0,0,0,0,0,0,0,0],"id":71,"left_children":[1,3,5,7,9,11,13,-1,-1,-1,-1,-1,-1,-1,-1],"loss_changes":[1.8121822E4,5.0942217E3,1.6836045E3,1.7550737E3,7.801623E2,6.0654395E2,3.6435254E2,0E0,0E0,0E0,0E0,0E0,0E0,0E0,0E0],"parents":[2147483647,0,0,1,1,2,2,3,3,4,4,5,5,6,6],"right_children":[2,4,6,8,10,12,14,-1,-1,-1,-1,-1,-1,-1,-1],"split_conditions":[4.023E3,2.013E2,5.67E3,1.215E2,4.4E-1,4.17E-1,5.359E2,4.5893557E-2,1.7650783E-2,-7.5094146E-3,-4.1078705E-2,-5.079481E-2,-8.794094E-2,-1.0399558E-1,-1.6423473E-1],"split_indices":[3,1,3,1,11,11,1,0,0,0,0,0,0,0,0],"split_type":[0,0,0,0,0,0,0,0,0,0,0,0,0,0,0],"sum_hessian":[7.193E3,5.995E3,1.198E3,4.158E3,1.837E3,9.77E2,2.21E2,1.266E3,2.892E3,1.498E3,3.39E2,7.43E2,2.34E2,1.61E2,6E1],"tree_param":{"num_deleted":"0","num_feature":"41","num_nodes":"15","size_leaf_vector":"1"}},{"base_weights":[-4.3797228E-3,1.1560946E0,-2.0724642E0,1.544701E0,1.0266115E-1,-1.1933897E0,-3.9935768E0,4.721411E-2,2.1268044E-2,2.4900632E-2,-7.5709173E-3,-1.979833E-2,-5.6582183E-2,-7.1000986E-2,-1.3890466E-1],"categories":[],"categories_nodes":[],"categories_segments":[],"categories_sizes":[],"default_left":[0,0,0,0,0,0,0,0,0,0,0,0,0,0,0],"id":72,"left_children":[1,3,5,7,9,11,13,-1,-1,-1,-1,-1,-1,-1,-1],"loss_changes":[1.7279791E4,1.8876963E3,4.365333E3,1.3202954E3,6.8440546E2,5.8824756E2,1.0373174E3,0E0,0E0,0E0,0E0,0E0,0E0,0E0,0E0],"parents":[2147483647,0,0,1,1,2,2,3,3,4,4,5,5,6,6],"right_children":[2,4,6,8,10,12,14,-1,-1,-1,-1,-1,-1,-1,-1],"split_conditions":[2.973E3,4.14E-1,3.796E2,1.355E2,1.231E2,4.6E-1,6.202E3,4.721411E-2,2.1268044E-2,2.4900632E-2,-7.5709173E-3,-1.979833E-2,-5.6582183E-2,-7.1000986E-2,-1.3890466E-1],"split_indices":[3,11,1,1,1,11,3,0,0,0,0,0,0,0,0],"split_type":[0,0,0,0,0,0,0,0,0,0,0,0,0,0,0],"sum_hessian":[7.198E3,4.611E3,2.587E3,3.368E3,1.243E3,1.776E3,8.11E2,1.248E3,2.12E3,3.68E2,8.75E2,1.581E3,1.95E2,7.07E2,1.04E2],"tree_param":{"num_deleted":"0","num_feature":"41","num_nodes":"15","size_leaf_vector":"1"}},{"base_weights":[-6.2793186E-3,4.3970296E-1,-2.606233E0,5.710653E-1,-4.977487E0,-3.5400894E0,-1.4593508E0,1.0548799E-3,3.4169298E-2,-1.2891826E-1,-6.9602676E-2,-9.753936E-2,-6.1700977E-2,-1.3346635E-2,-3.2324184E-2],"categories":[],"categories_nodes":[],"categories_segments":[],"categories_sizes":[],"default_left":[0,0,0,0,0,0,0,0,0,0,0,0,0,0,0],"id":73,"left_children":[1,3,5,7,9,11,13,-1,-1,-1,-1,-1,-1,-1,-1],"loss_changes":[8.315216E3,4.358197E3,1.1189082E3,3.5234055E3,2.953938E2,3.357749E2,5.7456177E1,0E0,0E0,0E0,0E0,0E0,0E0,0E0,0E0],"parents":[2147483647,0,0,1,1,2,2,3,3,4,4,5,5,6,6],"right_children":[2,4,6,8,10,12,14,-1,-1,-1,-1,-1,-1,-1,-1],"split_conditions":[1E0,1E0,2.012E3,2.016E3,2.006E3,1.988E3,3.23E-1,1.0548799E-3,3.4169298E-2,-1.2891826E-1,-6.9602676E-2,-9.753936E-2,-6.1700977E-2,-1.3346635E-2,-3.2324184E-2],"split_indices":[26,23,5,5,5,5,11,0,0,0,0,0,0,0,0],"split_type":[0,0,0,0,0,0,0,0,0,0,0,0,0,0,0],"sum_hessian":[7.169E3,6.12E3,1.049E3,5.976E3,1.44E2,5.77E2,4.72E2,4.106E3,1.87E3,7.1E1,7.3E1,1.44E2,4.33E2,7.9E1,3.93E2],"tree_param":{"num_deleted":"0","num_feature":"41","num_nodes":"15","size_leaf_vector":"1"}},{"base_weights":[-2.3972602E-3,1.1412075E0,-1.9430054E0,-6.709927E-1,1.4710286E0,-8.97433E-1,-3.3993483E0,8.937469E-3,-2.3939053E-2,2.099107E-2,4.7935024E-2,-6.498792E-2,-1.212652E-2,-8.8392526E-2,-4.2889357E-2],"categories":[],"categories_nodes":[],"categories_segments":[],"categories_sizes":[],"default_left":[0,0,0,0,0,0,0,0,0,0,0,0,0,0,0],"id":74,"left_children":[1,3,5,7,9,11,13,-1,-1,-1,-1,-1,-1,-1,-1],"loss_changes":[1.5974519E4,2.7080596E3,4.0606377E3,4.1100098E2,1.4922666E3,1.0623104E3,1.4174297E3,0E0,0E0,0E0,0E0,0E0,0E0,0E0,0E0],"parents":[2147483647,0,0,1,1,2,2,3,3,4,4,5,5,6,6],"right_children":[2,4,6,8,10,12,14,-1,-1,-1,-1,-1,-1,-1,-1],"split_conditions":[2.946E3,1.99E3,4.189E3,1.821E3,2.018E3,1.985E3,2.012E3,8.937469E-3,-2.3939053E-2,2.099107E-2,4.7935024E-2,-6.498792E-2,-1.212652E-2,-8.8392526E-2,-4.2889357E-2],"split_indices":[3,5,3,3,5,5,5,0,0,0,0,0,0,0,0],"split_type":[0,0,0,0,0,0,0,0,0,0,0,0,0,0,0],"sum_hessian":[7.196E3,4.528E3,2.668E3,6.97E2,3.831E3,1.554E3,1.114E3,2.23E2,4.74E2,2.634E3,1.197E3,1.7E2,1.384E3,6.13E2,5.01E2],"tree_param":{"num_deleted":"0","num_feature":"41","num_nodes":"15","size_leaf_vector":"1"}},{"base_weights":[-2.9745962E-2,1.1329868E0,-1.8863053E0,-7.1081644E-1,1.4565727E0,-1.2694389E0,-4.288485E0,1.6152572E-2,-2.2570552E-2,5.217948E-2,2.2369303E-2,-3.7470587E-2,-2.601745E-3,-1.3009922E-1,-7.0579045E-2],"categories":[],"categories_nodes":[],"categories_segments":[],"categories_sizes":[],"default_left":[0,0,0,0,0,0,0,0,0,0,0,0,0,0,0],"id":75,"left_children":[1,3,5,7,9,11,13,-1,-1,-1,-1,-1,-1,-1,-1],"loss_changes":[1.5622439E4,2.6561074E3,4.1238438E3,4.2273416E2,1.4718696E3,1.5268303E3,9.339453E2,0E0,0E0,0E0,0E0,0E0,0E0,0E0,0E0],"parents":[2147483647,0,0,1,1,2,2,3,3,4,4,5,5,6,6],"right_children":[2,4,6,8,10,12,14,-1,-1,-1,-1,-1,-1,-1,-1],"split_conditions":[2.905E3,1.99E3,4.238E2,1.127E2,1.146E2,2.015E3,1.997E3,1.6152572E-2,-2.2570552E-2,5.217948E-2,2.2369303E-2,-3.7470587E-2,-2.601745E-3,-1.3009922E-1,-7.0579045E-2],"split_indices":[3,5,1,1,1,5,5,0,0,0,0,0,0,0,0],"split_type":[0,0,0,0,0,0,0,0,0,0,0,0,0,0,0],"sum_hessian":[7.235E3,4.449E3,2.786E3,6.64E2,3.785E3,2.218E3,5.68E2,1.43E2,5.21E2,8.57E2,2.928E3,1.449E3,7.69E2,1.43E2,4.25E2],"tree_param":{"num_deleted":"0","num_feature":"41","num_nodes":"15","size_leaf_vector":"1"}},{"base_weights":[2.3578426E-2,1.1311356E0,-1.801729E0,6.484884E-1,2.3088868E0,-1.267135E0,-4.4173546E0,-2.611804E-2,1.7387882E-2,6.994384E-2,3.973324E-2,-4.9061358E-2,-1.3347001E-2,-7.625664E-2,-1.4105114E-1],"categories":[],"categories_nodes":[],"categories_segments":[],"categories_sizes":[],"default_left":[0,0,0,0,0,0,0,0,0,0,0,0,0,0,0],"id":76,"left_children":[1,3,5,7,9,11,13,-1,-1,-1,-1,-1,-1,-1,-1],"loss_changes":[1.4588047E4,2.5510635E3,3.8041963E3,1.3770345E3,4.9219043E2,1.6084451E3,7.0800684E2,0E0,0E0,0E0,0E0,0E0,0E0,0E0,0E0],"parents":[2147483647,0,0,1,1,2,2,3,3,4,4,5,5,6,6],"right_children":[2,4,6,8,10,12,14,-1,-1,-1,-1,-1,-1,-1,-1],"split_conditions":[2.151E2,2.017E3,4.373E2,1.98E3,1.127E2,2.002E3,6.332E3,-2.611804E-2,1.7387882E-2,6.994384E-2,3.973324E-2,-4.9061358E-2,-1.3347001E-2,-7.625664E-2,-1.4105114E-1],"split_indices":[1,5,1,5,1,5,3,0,0,0,0,0,0,0,0],"split_type":[0,0,0,0,0,0,0,0,0,0,0,0,0,0,0],"sum_hessian":[7.214E3,4.49E3,2.724E3,3.186E3,1.304E3,2.263E3,4.61E2,3.23E2,2.863E3,2.76E2,1.028E3,7.59E2,1.504E3,3.77E2,8.4E1],"tree_param":{"num_deleted":"0","num_feature":"41","num_nodes":"15","size_leaf_vector":"1"}},{"base_weights":[5.486855E-3,1.0311456E0,-1.962082E0,1.8021985E0,4.98689E-1,-8.9715856E-1,-3.3143039E0,3.9626826E-2,4.507331E-3,1.630792E-2,-1.7882565E-2,-1.059731E-2,-4.298192E-2,-5.940302E-2,-1.3164696E-1],"categories":[],"categories_nodes":[],"categories_segments":[],"categories_sizes":[],"default_left":[0,0,0,0,0,0,0,0,0,0,0,0,0,0,0],"id":77,"left_children":[1,3,5,7,9,11,13,-1,-1,-1,-1,-1,-1,-1,-1],"loss_changes":[1.4576317E4,1.9481733E3,3.5606357E3,5.470576E2,1.2402544E3,6.359148E2,1.2054248E3,0E0,0E0,0E0,0E0,0E0,0E0,0E0,0E0],"parents":[2147483647,0,0,1,1,2,2,3,3,4,4,5,5,6,6],"right_children":[2,4,6,8,10,12,14,-1,-1,-1,-1,-1,-1,-1,-1],"split_conditions":[3.017E3,1.931E3,4.189E3,4.6E-1,4.34E-1,4.31E-1,6.202E3,3.9626826E-2,4.507331E-3,1.630792E-2,-1.7882565E-2,-1.059731E-2,-4.298192E-2,-5.940302E-2,-1.3164696E-1],"split_indices":[3,3,3,11,11,11,3,0,0,0,0,0,0,0,0],"split_type":[0,0,0,0,0,0,0,0,0,0,0,0,0,0,0],"sum_hessian":[7.221E3,4.747E3,2.474E3,1.938E3,2.809E3,1.385E3,1.089E3,1.74E3,1.98E2,2.289E3,5.2E2,1.072E3,3.13E2,9.87E2,1.02E2],"tree_param":{"num_deleted":"0","num_feature":"41","num_nodes":"15","size_leaf_vector":"1"}},{"base_weights":[-7.23631E-3,7.8609645E-1,-2.4844675E0,1.8141091E0,2.515121E-1,-1.9473678E0,-4.9675803E0,2.192141E-2,4.8829224E-2,-3.736203E-2,1.0538417E-2,-6.2544644E-2,-2.5948899E-2,-8.8167764E-2,-1.4352554E-1],"categories":[],"categories_nodes":[],"categories_segments":[],"categories_sizes":[],"default_left":[0,0,0,0,0,0,0,0,0,0,0,0,0,0,0],"id":78,"left_children":[1,3,5,7,9,11,13,-1,-1,-1,-1,-1,-1,-1,-1],"loss_changes":[1.4154022E4,2.9971843E3,2.3195732E3,8.3753467E2,2.0965493E3,1.098189E3,3.5008203E2,0E0,0E0,0E0,0E0,0E0,0E0,0E0,0E0],"parents":[2147483647,0,0,1,1,2,2,3,3,4,4,5,5,6,6],"right_children":[2,4,6,8,10,12,14,-1,-1,-1,-1,-1,-1,-1,-1],"split_conditions":[2.608E2,1.915E3,5.442E3,2.009E3,1.985E3,2.003E3,5.359E2,2.192141E-2,4.8829224E-2,-3.736203E-2,1.0538417E-2,-6.2544644E-2,-2.5948899E-2,-8.8167764E-2,-1.4352554E-1],"split_indices":[1,3,3,5,5,5,1,0,0,0,0,0,0,0,0],"split_type":[0,0,0,0,0,0,0,0,0,0,0,0,0,0,0],"sum_hessian":[7.2E3,5.454E3,1.746E3,1.865E3,3.589E3,1.437E3,3.09E2,8.71E2,9.94E2,4.12E2,3.177E3,5.09E2,9.28E2,2.49E2,6E1],"tree_param":{"num_deleted":"0","num_feature":"41","num_nodes":"15","size_leaf_vector":"1"}},{"base_weights":[-2.5173482E-2,1.0511096E0,-1.7811178E0,6.161668E-1,2.2543733E0,-1.1503325E0,-3.8847497E0,-2.1717364E-2,1.7296106E-2,6.715318E-2,3.8745742E-2,-3.6490805E-2,-5.363217E-3,-9.655873E-2,-5.2619655E-2],"categories":[],"categories_nodes":[],"categories_segments":[],"categories_sizes":[],"default_left":[0,0,0,0,0,0,0,0,0,0,0,0,0,0,0],"id":79,"left_children":[1,3,5,7,9,11,13,-1,-1,-1,-1,-1,-1,-1,-1],"loss_changes":[1.3656423E4,2.342936E3,3.6388057E3,1.3940632E3,4.089214E2,1.2566389E3,7.3509766E2,0E0,0E0,0E0,0E0,0E0,0E0,0E0,0E0],"parents":[2147483647,0,0,1,1,2,2,3,3,4,4,5,5,6,6],"right_children":[2,4,6,8,10,12,14,-1,-1,-1,-1,-1,-1,-1,-1],"split_conditions":[2.905E3,2.018E3,4.912E3,1.983E3,1.135E2,2.012E3,2.012E3,-2.1717364E-2,1.7296106E-2,6.715318E-2,3.8745742E-2,-3.6490805E-2,-5.363217E-3,-9.655873E-2,-5.2619655E-2],"split_indices":[3,5,3,5,1,5,5,0,0,0,0,0,0,0,0],"split_type":[0,0,0,0,0,0,0,0,0,0,0,0,0,0,0],"sum_hessian":[7.224E3,4.479E3,2.745E3,3.291E3,1.188E3,2.113E3,6.32E2,4.19E2,2.872E3,2.63E2,9.25E2,1.197E3,9.16E2,3.59E2,2.73E2],"tree_param":{"num_deleted":"0","num_feature":"41","num_nodes":"15","size_leaf_vector":"1"}},{"base_weights":[-9.916452E-3,9.846474E-1,-1.8738654E0,-4.6271607E-1,1.3276427E0,-9.983136E-1,-3.3325696E0,2.3375122E-2,-1.7232409E-2,4.181999E-2,1.755458E-2,-3.3826135E-2,-1.1054866E-3,-1.1141338E-1,-5.5798903E-2],"categories":[],"categories_nodes":[],"categories_segments":[],"categories_sizes":[],"default_left":[0,0,0,0,0,0,0,0,0,0,0,0,0,0,0],"id":80,"left_children":[1,3,5,7,9,11,13,-1,-1,-1,-1,-1,-1,-1,-1],"loss_changes":[1.3330873E4,2.3285024E3,3.1917207E3,5.860468E2,1.2998662E3,1.0224905E3,1.1227744E3,0E0,0E0,0E0,0E0,0E0,0E0,0E0,0E0],"parents":[2147483647,0,0,1,1,2,2,3,3,4,4,5,5,6,6],"right_children":[2,4,6,8,10,12,14,-1,-1,-1,-1,-1,-1,-1,-1],"split_conditions":[3.017E3,1.993E3,3.566E2,1.127E2,1.355E2,2.012E3,1.992E3,2.3375122E-2,-1.7232409E-2,4.181999E-2,1.755458E-2,-3.3826135E-2,-1.1054866E-3,-1.1141338E-1,-5.5798903E-2],"split_indices":[3,5,1,1,1,5,5,0,0,0,0,0,0,0,0],"split_type":[0,0,0,0,0,0,0,0,0,0,0,0,0,0,0],"sum_hessian":[7.189E3,4.688E3,2.501E3,8.98E2,3.79E3,1.564E3,9.37E2,1.76E2,7.22E2,1.404E3,2.386E3,9.01E2,6.63E2,1.81E2,7.56E2],"tree_param":{"num_deleted":"0","num_feature":"41","num_nodes":"15","size_leaf_vector":"1"}},{"base_weights":[1.8176762E-2,6.2183994E-1,-2.8158336E0,1.1200025E0,-5.410174E-1,-2.2007804E0,-4.7502446E0,3.904162E-2,1.5043312E-2,-5.2435696E-3,-3.577389E-2,-3.6607847E-2,-6.722196E-2,-8.4177025E-2,-1.4161131E-1],"categories":[],"categories_nodes":[],"categories_segments":[],"categories_sizes":[],"default_left":[0,0,0,0,0,0,0,0,0,0,0,0,0,0,0],"id":81,"left_children":[1,3,5,7,9,11,13,-1,-1,-1,-1,-1,-1,-1,-1],"loss_changes":[1.2353417E4,3.449189E3,1.4974736E3,1.273957E3,6.20677E2,4.076245E2,3.5386377E2,0E0,0E0,0E0,0E0,0E0,0E0,0E0,0E0],"parents":[2147483647,0,0,1,1,2,2,3,3,4,4,5,5,6,6],"right_children":[2,4,6,8,10,12,14,-1,-1,-1,-1,-1,-1,-1,-1],"split_conditions":[2.962E2,2.013E2,4.655E2,1.215E2,4.4E-1,4.17E-1,5.359E2,3.904162E-2,1.5043312E-2,-5.2435696E-3,-3.577389E-2,-3.6607847E-2,-6.722196E-2,-8.4177025E-2,-1.4161131E-1],"split_indices":[1,1,1,1,11,11,1,0,0,0,0,0,0,0,0],"split_type":[0,0,0,0,0,0,0,0,0,0,0,0,0,0,0],"sum_hessian":[7.219E3,5.952E3,1.267E3,4.167E3,1.785E3,9.63E2,3.04E2,1.276E3,2.891E3,1.46E3,3.25E2,7.32E2,2.31E2,2.49E2,